svm_type c_svc
kernel_type polynomial
degree 2
gamma 0.2
coef0 0.0
nr_class 44
total_sv 891
rho -0.8439800112433168 -0.9176702331488936 -0.947868488552392 -0.912699369551034 -0.8489825058985447 -0.3560736908501032 -0.7645094949466915 -0.895097433400995 -0.9661464141929287 -0.9280983294654 -0.9645506251139089 -0.8839901418179944 -0.9602366430281928 -0.864037859106861 -0.9630771476682601 -0.9736176969065498 -0.9831995174842663 -0.9595805503805747 -0.9638834769675593 -0.9553247582305548 -0.9487563101203756 -0.9319408268601256 -0.9757523510833497 -0.9775729349092588 -0.9614838516692203 -0.9074806083939911 -0.9604248714851907 -0.8663207112666547 -0.9839091560219566 -0.9693989899875476 -0.9617741972779797 -0.9689781606947743 -0.9825032197434513 -0.9977794951425502 -0.9807409090479144 -0.9578484639385729 -0.9899835500588493 -0.991268165656648 -0.9897503312187261 -0.9825414916448624 -0.9995695659853445 -0.9805025409164477 -0.9953042309546265 -0.07366945581150139 -0.2782229465327531 -0.0664962119505525 -0.12305486221048126 0.7673440319041404 0.15469560241324143 -0.14276776597230753 -0.5762177990108308 -0.4077304653524475 -0.27172022112657257 -0.17467630111530266 -0.6632773792925165 -0.1127893496305591 -0.5514895249987777 -0.6308179750943322 -0.45721917225774034 -0.6770008896962217 -0.538340776395841 -0.5718318509188847 -0.23428169896208628 -0.28821875315211726 -0.5444516367285048 -0.6283165825460737 -0.4822823098799327 -0.36525501059104837 -0.29286373959381007 -0.07881070146207027 -0.7778397834818351 -0.5036189268998423 -0.4941112481102478 -0.7123149922657447 -0.7524667788568417 -0.8713345408914902 -0.8268532653195391 -0.7150603167828371 -0.8521463049229636 -0.880807325348979 -0.8736728245028809 -0.691195950656074 -0.7998389644884013 -0.7342520879853667 -0.8236719925800072 -0.2507846328387028 -0.005099725464245152 -0.04290622088660342 0.7724548152200374 0.22935385252089802 -0.062417740727300386 -0.48423390147143947 -0.38317686081028957 -0.20336657757853607 -0.11461067595568275 -0.6165983098414715 -0.04370253177928203 -0.48617889653301954 -0.6020043303286087 -0.45924201977496887 -0.6286918224078639 -0.44855695886653185 -0.5563257608314872 -0.3183626419214989 -0.22594659090411096 -0.47858524523966683 -0.5608719804005895 -0.4432815144610594 -0.3101363691127806 -0.43411028445368466 0.024340945038149795 -0.7176640442273154 -0.4002417765114078 -0.5228139735775191 -0.6382468927158358 -0.747329054696724 -0.980253281580176 -0.7583036015893182 -0.5495799937567983 -0.8181370323255592 -0.8465572367140808 -0.8442050414538315 -0.6531655665637166 -1.015046007958528 -0.7000968969977444 -0.7876106267039293 0.23474848002668922 0.16523573165392605 0.8106062460656864 0.4107755923004381 0.14607950143078977 -0.3097692572192186 -0.14578242067200234 0.05421236330002913 0.14018277486831815 -0.46854894492345817 0.177524657965778 -0.3101983735663923 -0.3908882190748187 -0.17711349341556304 -0.48497753751323525 -0.2670834261242153 -0.3232940880365266 0.07904045113760964 -0.0077323760238547715 -0.3020131022139744 -0.3983585986514692 -0.11077615382922526 -0.0778142525842297 0.009663673353002623 0.2342222084847617 -0.6022482785570121 -0.18157299351164027 -0.23756658836418562 -0.497070337052334 -0.5713248052234866 -0.8055287470865546 -0.6382460365764987 -0.3534945262250434 -0.7379166478797919 -0.7764393147536033 -0.7733265330457968 -0.4939800070429257 -0.673878887446332 -0.5282892324770374 -0.6933082540343202 -0.043569827910483735 0.7805390857275285 0.21276941088135368 -0.06322311205318724 -0.48818454785909865 -0.3745327894469457 -0.17755166593265587 -0.10503459242958087 -0.6422281716368999 -0.032672729244372936 -0.6264257930466647 -0.5536098294511079 -0.4977480983011167 -0.6296186885267883 -0.45106735307458495 -0.4965644009883402 -0.16492006122847086 -0.2233296439522511 -0.5825919603677053 -0.5707547014337704 -0.32048919120408825 -0.2809632111545583 -0.21516312758546075 0.01351571284196277 -0.719079464333666 -0.3873965896087 -0.5355978284459191 -0.6413837985561043 -0.6976267574090893 -0.86253536615777 -0.7700151870247924 -0.5262702995763231 -0.8815768330249969 -0.8483414420055604 -0.8454928115617317 -0.6530711881311103 -0.8007938833611978 -0.6638170694906759 -0.8032172228405697 0.7451489127148386 0.29785619842050154 -0.04239787550445206 -0.6872374420856237 -0.29975683479451687 -0.14831504334071566 -0.05495594510544943 -0.5854709413140345 0.00985915680092743 -0.4916525587431406 -0.5574848360221927 -0.3433486011978331 -0.6851663511171023 -0.5419249575629403 -0.4630625811825669 -0.11197793629155846 -0.19672146407818986 -0.5168944878629554 -0.5488386287326764 -0.2996727417667869 -0.2420159616482558 -0.18310329924635452 0.06759332650097644 -0.749174743667617 -0.3369842914662276 -0.3921268570714912 -0.6369628668396555 -0.7451004230677297 -0.8314722605599856 -0.8107982753373533 -0.4920516080674233 -0.8163815278849142 -0.8750462801053359 -0.8933032448154333 -0.6234995549188553 -0.7349588278431529 -0.6758009189714544 -0.7999223447999472 -0.5778738179564343 -0.7342988187126048 -0.9076488287958336 -0.8960728425535874 -0.843239117836716 -0.7739137522035097 -0.9400877062179244 -0.8506235475508126 -0.940006794666677 -0.9791716323319952 -0.9351076949602214 -0.9385809585419664 -0.8879086875562668 -0.9060768238105907 -0.8337186120902089 -0.8640084449377087 -0.9342185528202614 -0.9024034681306944 -0.907607880777993 -0.861912485877799 -0.891939678951217 -0.7215838302327503 -0.9556211050196131 -0.8793666357532879 -0.9186882784456096 -0.9285459208677534 -1.0016340999220952 -0.993773282496744 -0.968210990113335 -0.9428637600896491 -0.986506005201755 -0.9791512870722109 -0.9814528462016064 -0.9493817806844947 -0.9797397181956999 -1.0114408133772024 -0.9596952780058164 -0.3478664435149508 -0.7210336583125037 -0.5154966037820378 -0.38290645532088097 -0.30456004408840603 -0.7330221426475472 -0.26191238512425774 -0.6938128724423167 -0.95640772980781 -0.546853067130053 -0.7943014644513013 -0.7158266384669527 -0.6873111756380536 -0.38447052887290634 -0.48360830584738557 -0.7182628673775575 -0.6957323581607932 -0.53263439717726 -0.48705256058970564 -0.44651996035454056 -0.21172629997635306 -0.8784920920105809 -0.5591641885050995 -0.6294273213429267 -0.7582760035000028 -0.9298059580073866 -0.9162789316560199 -0.8757605325078391 -0.6985899484226888 -0.9302619609663224 -0.9488626654401522 -0.9321765364999542 -0.7430956768081001 -0.8695584798521542 -0.9203175153763488 -0.8607011113326172 -0.46309932018223576 -0.280375546546859 -0.11943319919427481 -0.035313265626461525 -0.5723566841248467 0.030392571548992747 -0.4681553130894564 -0.5465343564632539 -0.3128429146249996 -0.6170420710227842 -0.4284192960317015 -0.4469461787379614 -0.09218152672635449 -0.15556828978889453 -0.46068433476975706 -0.5115138287815891 -0.26091964547143026 -0.2206170657582827 -0.14317543608961555 0.0879427062230768 -0.7222945512976656 -0.31152106507065147 -0.3775453528626614 -0.5987144952343815 -0.687749349591183 -0.8253579941904622 -0.7562856720554574 -0.47491803064848054 -0.8200587905488881 -0.8505970087005139 -0.8499891520091609 -0.5833704891714949 -0.7244692437438189 -0.6558517283502118 -0.7596117648089534 0.17699340927786295 0.36663040220165993 0.40587992669703216 -0.18217279080226562 0.4931081712601651 4.2675612602062615E-4 -0.09612477085042578 0.1475912290484542 -0.2281248846474034 0.05754775793684392 -0.014598933514353717 0.3593377559160677 0.319804552320391 0.006889247232523918 -0.10524710940325772 0.22532662172272655 0.24384684509573368 0.33282605931736753 0.5156774318036883 -0.425988646849614 0.15140465141351472 0.08404328338011395 -0.2466266138091134 -0.3612389236001332 -0.6135493976034796 -0.43384983705125213 -0.04964685036814564 -0.5785803088093102 -0.669495480077491 -0.6546380131822405 -0.2063218143666719 -0.3974735509776831 -0.2657495146326262 -0.5153136210423629 0.2058456368895034 0.28772422142559845 -0.35614426216146045 0.30884610835626636 -0.17928257659178656 -0.2656701186970438 -0.033934084965387516 -0.37150751744274163 -0.13063619637703572 -0.1913073943278761 0.22498087062109876 0.13630049492178098 -0.1690364436047114 -0.27529377182230735 0.03130178356948495 0.06271649149236405 0.15710176578748675 0.36734222968240826 -0.5017285903606655 -0.036743882104265865 -0.09800986512004768 -0.38592209586419696 -0.47015745280155435 -0.7275198002138397 -0.5389924141122129 -0.2268840528191497 -0.6638628536019779 -0.7147764491180357 -0.7097362085424158 -0.38213795510732024 -0.5467688169883961 -0.4216540469232979 -0.6170712224264229 0.08361247530141572 -0.48840048939627767 0.16050170558616134 -0.33770858914060997 -0.41235573125993324 -0.36740534658641605 -0.5097997630516313 -0.3264955295906884 -0.3464025392445005 0.02493190010109396 -0.045047819312016193 -0.32750905071822317 -0.47441089983670076 -0.14505505162336157 -0.11234474230149649 -0.023111192424941508 0.20870933005102188 -0.6560769672026807 -0.28336188882755997 -0.2688108530577376 -0.5709990914987824 -0.5929466117483527 -0.8254367302504969 -0.6782896468092586 -0.38256886988497635 -0.7499162403302857 -0.8275806129283734 -0.8044727178087339 -0.6221531607048943 -0.6960233682543752 -0.5468179369067347 -0.7553898235805552 -0.5546645866681703 0.06617325965638837 -0.40841862171168813 -0.4815028666761299 -0.30844620886131807 -0.5659373213643465 -0.36614749849959816 -0.4188658189472021 -0.07227464162413033 -0.12562700912943875 -0.3994624123256735 -0.4896398465705364 -0.2381094187426013 -0.19550143099183478 -0.11542959997600964 0.12427536495554964 -0.6662476470840784 -0.2914554757595623 -0.3723751858628328 -0.577251789110267 -0.6421114078239335 -0.8438107843987335 -0.7090705606870091 -0.44829246696530606 -0.7830819655468925 -0.8162680670255439 -0.8142761182061958 -0.5869225653436585 -0.7512158295579328 -0.6050131180885719 -0.7468888688185606 0.5938365313560768 0.1834037347559405 0.09347124057531556 0.32849607239736806 -0.024714306806054864 0.22842817538610716 0.1700184397959213 0.515004070359771 0.4754603450133512 0.19116837524296293 0.08739551190721258 0.37558437125908123 0.4021336801849451 0.4762248438323621 0.6580252852266781 -0.18720386078686496 0.31996564526354015 0.26705400492783643 -0.0384050054369401 -0.14228584865075736 -0.48109642396841634 -0.2389681301868117 0.13372719875708763 -0.413164388300905 -0.4820145816691224 -0.48109642396841634 -0.015163753143827558 -0.23257631823422556 -0.08156720232392847 -0.35120053354007513 -0.4609677775858543 -0.557145335630867 -0.35706934902110765 -0.6087367741082591 -0.4613765511387039 -0.5052539660619044 -0.12840835569978634 -0.18267336790218153 -0.454138548653035 -0.5774082908395766 -0.29534295501902524 -0.2791035126792736 -0.18354813280283433 0.056129972082629855 -0.7451689032632288 -0.3663654210239418 -0.42035046401659704 -0.6470918480016049 -0.6962703420147501 -0.8637718163891809 -0.7561368030687216 -0.5093043318892247 -0.8127757191296806 -0.8635698022873736 -0.8429488037500416 -0.6180115040340047 -0.784982828567563 -0.6671313688163334 -0.8004935092695283 -0.09629243281608085 0.14564392006450327 -0.21680287995210246 0.050867677630525576 -0.014957377156350054 0.3580704391298512 0.31779858217584506 0.005712816753901594 -0.09913377198594713 0.210907267388226 0.23623890182886542 0.3193857799303362 0.5179818149028472 -0.3690248468466239 0.14150095478495017 0.08856970887280659 -0.22184325437814204 -0.3276584995289876 -0.6099094847506665 -0.4506343274453174 -0.05062904162140421 -0.6408210174554296 -0.6323715624529662 -0.6167979359745365 -0.1968899072331541 -0.39788408520315244 -0.2770159078531765 -0.4879070627037046 0.23328109761352533 -0.11954829854346917 0.14500196335929624 0.0844467675797722 0.46354879754555023 0.40698652017027065 0.10555803184908143 -0.005810249755829283 0.3171022151591178 0.33606994573871035 0.43220433470613 0.6002371123991911 -0.2855437740106028 0.23612976659913593 0.18750985105745233 -0.130737196546007 -0.2593609140197271 -0.5744925330057339 -0.3393853972508224 0.045334465132792094 -0.5144142393621587 -0.5688377912930515 -0.5688377912930515 -0.10800135635902931 -0.32902542493880876 -0.2197285324131939 -0.40861123553334205 -0.33871577315420265 -0.09934780718039317 -0.15774818875005187 0.24692195569244627 0.17420993761120246 -0.13547601832056927 -0.26091292211278133 0.07763190843874895 0.10108102701631556 0.20356955642259436 0.4031220880101485 -0.4896743292530172 0.0014393302759579468 -0.06212248527075864 -0.3823440091650681 -0.4469633812827866 -0.7165168897015525 -0.5176473781062665 -0.19275831435875299 -0.650221014955963 -0.7235490612252237 -0.6964062176087975 -0.37060545405975714 -0.5360744191491958 -0.3920842512033467 -0.6000993176484304 0.2631709215987007 0.19258045193521384 0.5246059630930818 0.4933842092858463 0.23362149904882398 0.11096953048918023 0.40550373803576256 0.4229479810160349 0.5094013468098887 0.729834767178397 -0.165907837518108 0.3376659868017391 0.287593101798095 -0.01401135872664408 -0.13434189696239549 -0.4618981077996256 -0.2121411070244584 0.15832820056649163 -0.39532502568427336 -0.4736851138571591 -0.46663354142359825 0.009524233302029218 -0.2089744090874166 -0.05698640414844878 -0.3091737374632581 -0.06300713877294382 0.31618551364318165 0.27529299282680053 -0.04198179757494987 -0.16615189570593686 0.1723824890429484 0.19627790018575103 0.2867508771989133 0.47436336130105516 -0.502330613378607 0.1009990046025436 0.034883018073540106 -0.30346301080750077 -0.3799128412439996 -0.6446948203037122 -0.4706815818889091 -0.0978763644268557 -0.6109190190956558 -0.7462192289487571 -0.6772900924875697 -0.25577270932583585 -0.4373074900201011 -0.3147174548678087 -0.5678376991416653 0.4072294732369563 0.3157955273243608 0.02387202918858314 -0.08340558001209737 0.22733436303456658 0.26651438195038274 0.3570034764820208 0.5195115495140058 -0.3453339104962628 0.1626164161679103 0.10102109116118001 -0.21080691559435083 -0.3162653426529997 -0.6268647566542194 -0.38846111041184817 -0.035995661417991626 -0.5432677548194396 -0.6017582933462255 -0.6004897897657817 -0.18251643683976743 -0.40501226892389824 -0.26883172046485354 -0.4725433571411 -0.06658550951868664 -0.3499189609339915 -0.4436163737102984 -0.17643461463458507 -0.1381547112851888 -0.053115969427132405 0.18209503650608957 -0.6352352095090371 -0.24180827375226288 -0.3172415511498048 -0.5396909279308842 -0.6196086741336655 -0.8848064834068222 -0.6774422247079348 -0.40735920461237507 -0.7610586816103213 -0.7966513433686359 -0.7936348190789252 -0.5498909231095827 -0.7598777764354694 -0.5994952347036973 -0.7216346914927574 -0.31913796577042586 -0.39044565887937693 -0.11048602706410285 -0.07114797204078069 0.016901573160282166 0.2419019400731714 -0.6513095595524965 -0.16933189848886374 -0.23201727054230614 -0.4921243502588867 -0.5810811269180151 -0.7782250586009397 -0.6456145401114268 -0.34875688949215206 -0.7727022662970755 -0.7931173756894364 -0.826102675428718 -0.48016930726154905 -0.642630806460269 -0.5327761145312095 -0.6926487676767953 -0.10779204259247127 0.21018010959851005 0.22836159095664207 0.3176758710325563 0.5181806120655175 -0.3824445341026861 0.13368218575407656 0.07534992144777604 -0.22973123183940725 -0.3553861980509018 -0.6171123614339893 -0.41249165359053636 -0.05905646959305686 -0.6655534509142123 -0.670661701995266 -0.6333886506007675 -0.20594737136339103 -0.4052915194364065 -0.27696231912324365 -0.49322365813565144 0.30388327066201737 0.3378737996761621 0.42728041728647326 0.6038904917494811 -0.30757303228596017 0.25465694680138384 0.17968731936056473 -0.14120691078757647 -0.22556284784710545 -0.5504015187665342 -0.3172522363188023 0.05225417351773405 -0.48630305931910145 -0.6002789905937617 -0.5504015187665342 -0.1038428805141665 -0.31203899515992384 -0.16545613697018413 -0.44666697653921544 0.03344144781567422 0.14239092946024992 0.34395122567577885 -0.5487838414687533 -0.07009377206259125 -0.1420674130321667 -0.427155002872421 -0.5137717032337762 -0.7608603410772613 -0.5717751205915973 -0.27323758446728813 -0.6843972611308496 -0.7473514491148853 -0.7404335227301643 -0.4040774829836569 -0.8435489740920797 -0.48081805632803437 -0.6300265222560221 0.10548714609535448 0.30375811450961043 -0.5650882805942372 -0.10215211120439839 -0.16111470370265452 -0.451824914644036 -0.535760529402681 -0.7581874950799167 -0.5830200688806391 -0.28844839654063176 -0.699954144832747 -0.7536565029565743 -0.7417643361535962 -0.41877477019451714 -0.6015634535858954 -0.4799240710645454 -0.6557021200011481 0.24170282844940721 -0.6482557979597791 -0.19991068806235213 -0.26556035940342027 -0.5289020717004711 -0.6170177951887467 -0.8434299611224254 -0.6582329074818448 -0.3714460213718405 -0.7562619035983633 -0.8152260554769765 -0.7916842310759488 -0.501963444559684 -0.7602644638672862 -0.5645579468167446 -0.7041723733451992 -0.7411783288696636 -0.3984024249472981 -0.445296258964679 -0.6540577899582961 -0.7172131210086719 -0.8528741291495838 -0.778042594767586 -0.5505213808795983 -0.843467163526793 -0.8634032323335109 -0.8587574085647778 -0.6424878454712127 -0.7885026080012448 -0.6905824712433328 -0.8050253096586578 0.5003723126204732 0.43608115854567053 0.16034745791852376 0.04755719818620992 -0.32605271012169496 -0.04986232390694397 0.31291238031048546 -0.27911868275857976 -0.38241604202937296 -0.37868255725221034 0.17770259102183622 -0.04726963321128885 0.11059774284173551 -0.15888215059257024 -0.06165321795867979 -0.3744318020756878 -0.44194051725844424 -0.724376209995396 -0.5233227722771719 -0.2013501092814833 -0.648168458093423 -0.7147195056529538 -0.6974516372545343 -0.3444412941440805 -0.532897544222174 -0.39395534700849844 -0.600108802103612 -0.29729108857900594 -0.40065299871587234 -0.7035713490348117 -0.48304415935728884 -0.13488198577215957 -0.6317951364482179 -0.6665050025263521 -0.6610358989405859 -0.27748383980470415 -0.534104716256027 -0.36471926599359855 -0.5455022152579835 -0.10517285972740727 -0.4531210444221912 -0.19853013722597804 0.17255321073114338 -0.3810496516616826 -0.4896266651774342 -0.4554420558632101 0.025291653658172635 -0.1956039518493905 -0.04176075219730862 -0.31321230948034684 -0.36789128280129124 -0.0952807790818514 0.2773660677579387 -0.2897292982449627 -0.3715905104517319 -0.36789128280129124 0.12704323260572972 -0.0952807790818514 0.06908763771983009 -0.19790115957493037 0.28000002437167687 0.5839652354322273 0.08745247872030115 0.0 0.0 0.4741835664853236 0.30434785362953554 0.4360514488090311 0.18181820542941313 0.35501455372739354 -0.20618558525468983 -0.2903226056760994 -0.2903226056760994 0.2263125234831347 0.0 0.16987928160701574 -0.10614525003819192 -0.5166660056082799 -0.5798350365749111 -0.5775776734203548 -0.14842690104325357 -0.3747239350172805 -0.22582055581282812 -0.4457054018128332 -0.0931174168985886 -0.0931174168985886 0.3988122809440904 0.19801981968454796 0.34674622439298447 0.0958904283580394 0.0 0.48151061654883626 0.28000002437167687 0.4270186373700184 0.1946902914216781 0.4741835664853236 0.28000002437167687 0.42143140992591777 0.18644070207079527 -0.22138784183637514 -0.06513540482204438 -0.3200027067168845 0.1606105256024819 -0.10497237437337803 -0.2576180010548374
label 0 1 2 3 4 5 6 7 8 9 10 11 12 13 14 15 16 17 18 19 20 21 22 23 24 25 26 27 28 29 30 31 32 33 34 35 36 37 38 39 40 41 42 43
probA -4.994823688152295 -5.801523119072466 -5.4601616275163005 -5.376214039591988 -7.732199338137862 -4.629430886234508 -5.90173124803903 -5.119152359915019 -9.71147631661426 -6.2673825456546295 -5.9473376613806375 -4.8968082478690125 -6.28652104950625 -4.614745634529039 -6.290906808383443 -12.077211338244373 -9.028503302809188 -13.325682048035162 -6.115610385497105 -5.525112966836237 -7.415476988721669 -5.3884432610973585 -10.50169203618604 -8.324570086186199 -3.3369880058415733 -11.279573511950767 -8.884955417972172 -4.716006122635858 -22.327375167133543 3.1819928209964887 -8.779740919981837 14.245219341494746 -10.660776565825731 1.0337275945930484 20.837853066248808 -10.067285608024978 4.538261776928025 11.774047379363846 4.724668071106478 -4.711088721001379 -1.9474252041012314 -8.947185593438494 1.627488483598146 -4.792663779897139 -4.420991012507255 -4.767998392162631 -4.5028366867299345 -3.8005014136214625 -5.154102650340263 -4.416258163073871 -5.873735565592578 -4.612888319777592 -4.927137713850926 -4.575110542152031 -4.748856846137035 -4.978398243274751 -5.742686093575761 -10.144277546176466 -8.37753002788261 -7.402965844822607 -5.348123675834229 -4.041408403637016 -5.110131455397631 -6.254220826059448 -8.481286422691777 -9.071886657193755 -6.059435255095474 -5.620225005144489 -6.205805006265204 -5.556239014159613 -11.097363647932298 -9.301681401772973 -8.404756850187383 -6.378836083696205 -5.091774167292455 25.18881157460008 11.951950714538059 -0.1545720505950364 15.237345950113498 17.14971747169736 27.093684274162136 -19.93650291794807 16.232962083107036 -6.475336569596384 15.162788607571622 -4.421474948469176 -4.573891748737187 -4.4895618460990665 -4.501849485371243 -5.122833800098294 -4.20370612584284 -8.625165000626483 -4.510675230403607 -4.901773339716037 -4.693368586066064 -3.9029784888269567 -4.648571530048314 -8.625869829560674 -13.938314487783932 -7.958885068023406 -6.899650137710441 -5.812601948659299 -4.171536286174297 -6.539973420704864 -5.383838734669182 -6.918575055164736 -5.368132877148078 -5.396524470182835 -6.323515832357221 -7.3684436363791335 -5.693783504198925 -13.39828481922509 -12.388831847019532 -5.042066800757644 -14.350981964938963 -6.046288840231701 1.8998591211157843 28.226835404011247 -11.470660928667973 27.420404926710177 32.78684243729328 39.09232117128164 -22.767990855775768 1.1752181260328525 17.75347046119701 24.164973929910897 -4.377706657401642 -4.226583099901736 -5.266393276399143 -4.547369139225378 -3.9959610211672048 -4.8447127446222 -4.261232739429119 -4.807013686775598 -4.454316265369371 -3.361158524734417 -4.280071871771126 -4.654209014645876 -6.295132742407697 -6.885057723790799 -5.6960278982955765 -4.949431739864255 -3.7482241190733 -4.55740467259366 -4.757457055791418 -6.1708881088303915 -11.28530807964088 -9.326367505072346 -4.47134466146146 -6.379896814331849 -5.321389687128024 -10.952689126445163 -8.88782103578756 -7.104042424318543 -10.883028179018421 -5.2006288036250465 21.42890049374035 13.679238542859942 -7.197236869605713 17.710003526914058 23.025461933095503 21.864124716373418 -14.175619890556687 6.2055344585832035 -12.156213979813453 16.31718678204119 -4.6657269721100105 -5.81773724801049 -4.939388469892962 -4.265371056836481 -6.717053584506735 -4.549883101552277 -4.5165697586844935 -4.580156115075036 -3.77064841313769 -4.57293570813748 -6.628451984262416 -9.093888537970694 -4.38570359421435 -6.8270958816522604 -5.608223491419848 -3.9396369014253616 -4.816763047717323 -5.515366353101035 -8.336790571573564 -8.985729930844332 -10.40777811411202 -5.367192368032997 -6.5362551711244 -5.46117779027186 -13.05833868180876 -5.223717181695111 -3.3245382104078045 -12.580432445588627 -5.700991167029252 15.73508682377821 11.26957404235309 -8.85438194844024 6.390023733783209 18.354368436940625 17.26634369310124 -7.100431941656582 5.043539045338084 14.287606438663891 7.084373489973087 -5.808742492402084 -5.5771218974818115 -4.298678519666758 -4.112689195542098 -4.165889659746981 -4.687303046184445 -4.319081706969928 -3.1876798879747374 -4.875676098880297 -5.751400746529555 -6.808862290816685 -6.60348096808557 -6.15498490725892 -3.60224440361326 -3.5567528787138225 -4.462852729024537 -5.013118241883136 -6.742709815673767 -4.243267948485952 -5.14736705777481 -5.864520497988319 -4.890312734327065 -4.593498317847662 -13.163170329690926 -7.979228201269614 -8.917064471229638 -8.470133972308702 -5.135618999801778 16.00899253376213 7.732818803620038 -7.870181932339253 8.775569446533911 9.179991464088944 9.537277189064497 -5.123648487380123 7.140640252728364 -8.628469833195238 7.950205729208369 -5.020696159545751 -5.543169504527323 -7.937679414032584 -5.812780818972793 -6.868989050786643 -5.0937773099061605 -5.206390663976737 -5.002836510175802 -7.006140889354134 -5.31247421686152 -5.72615893147092 -10.334774230844516 -9.012581370613475 -5.072377642096824 -7.426152173527516 -6.4796106031854555 -7.926334324666791 -8.232551294966122 -4.4447376887894965 -2.71293673157147 -5.405764522750559 -9.707401735320818 -12.297738975708056 -13.928209578500754 -8.186435127918065 -15.420486137328597 -5.850186952327942 -3.2726769609783117 0.6773256764640512 -8.014573784172326 0.41161939867428604 1.2089427168915543 -1.7099935327501086 -5.706497482946947 0.9880967052193804 -1.8677501677521713 15.503433269034005 -4.973334312721699 -6.912420644913559 -4.576893785833051 -5.0778168419246095 -4.776558708477956 -3.6147413405384965 -5.0489486564145345 -6.366350419805102 -7.58852712060197 -11.976908488630194 -7.9713914282641065 -5.909378388633744 -4.1188458713413185 -5.613703686662189 -6.486964586895391 -10.116526972825373 -4.985348981588433 -13.786550896889771 -6.08162691075483 -9.1227050977754 -7.116146286015994 -10.774507187007293 -13.439538773435999 -1.1870893134839122 -16.84807610640392 -5.973000437856767 22.55999780613743 12.200584955824134 -9.477416498653286 5.092775903117581 17.44868755876928 9.928260552169913 -24.5118620136725 15.656667027304941 7.665234365431781 21.681063359225483 -4.999100476196419 -3.8895469513751904 -4.1665496426803665 -4.104439563188695 -3.385610387335609 -4.20586455877535 -5.867039517734968 -8.097013000886307 -6.71282446589779 15.660657847412162 -5.24953576957037 -3.7013196862712867 -4.1574543765630425 -5.297533333063583 -7.914990809704169 -6.912676887789274 -8.996941740731748 -5.341229662895453 -6.134563410084977 -5.162378122261333 -10.39682760494717 -9.794925478029782 -7.388212153216725 -12.708030335263018 -5.053612147780441 28.550572406687888 16.418937373529403 -9.063592295641975 40.297031510305345 28.639837928715842 8.470920592984857 -16.352841462783424 15.769239130989172 -14.344562669205072 19.341692188035527 -4.712551169621928 -5.434456369774967 -6.358668135328711 -3.068750327681482 -5.649163904337656 -4.0173484316144075 -6.341558343651397 -5.756163915386854 -4.798564074986863 -1.4397339685708272 -3.531144635536612 -4.678484615502172 -4.778965718075898 -5.399622710869255 -5.08731550269469 -6.329290113746218 -4.617335709532936 -4.599284836554543 -5.2479674282968185 0.028189612218591262 -1.5761342827497296 -5.1650426496299575 -0.45140463595388014 -5.382873378307636 7.864194757867969 2.71304409099535 -7.269184582602232 4.416868703421111 5.438556500212321 4.4370486961771665 -1.9588879782205642 5.0023698879803 -7.229348394523456 5.99255946439462 -4.588124165559074 -4.298596811162778 -2.819559808741649 -4.15440684436349 -3.9706838499527706 -5.69615135215847 -7.3823483652361315 9.38109565306956 -4.515525060763259 -3.1175945501455513 -4.413856570813516 -4.436189276995967 -5.019213374674495 -3.6414600774150263 -6.769343318930189 -4.040354724668746 -5.261533985410213 -4.436495754357892 -8.358780007315499 -6.77119894678865 -5.772718392308775 -9.180197034138178 -4.127072220136239 8.765963868066073 7.556120144627281 -5.8151486591421095 9.519970334733905 14.449548830439713 11.038880699650955 -11.402802507789609 7.85461854321723 -10.142872792819064 9.082436764687335 -4.926802917607379 -3.2165017808492293 -4.657408970803619 -4.705704378748188 -6.966879019623387 -4.260426005435017 -5.7804099394129 -5.107476150793175 -3.579917860789491 -5.07025490623843 -4.738124342663491 -5.503384680211457 -6.133094966881439 -8.99378340873386 -5.0705789579051075 -6.856131500645913 -5.269256741310886 13.221686377329673 -1.3883944174121141 -11.12877729784378 -11.909959117076811 -5.017845476537211 13.471650446693406 7.740205236544647 -10.074506596087893 12.368134172452944 6.436821061684474 7.408863531093875 0.5368470851560525 8.724665081148 9.406501984997144 8.917583081889079 -3.3697720257352577 -4.3533136297877375 -6.439626819087504 -8.068929258435169 -8.92109963930629 -6.067561314121356 -7.464595980831116 -3.5768469220882215 -4.839013794948771 -4.901791323897751 -6.549623878172079 -4.770309508505007 -8.990512124999068 -4.7179560262816524 -6.251055384687308 -5.182742842025685 -11.659038313510422 -8.761844638668254 -6.073241057991592 17.666615892026066 -6.1741583030150995 7.507230513387563 9.270102458878673 -7.989841123144128 17.467576340698947 20.339380996606852 20.747138860098968 -17.297281793228468 6.381049092740009 -13.167930170192918 11.965099464064624 -3.4858748308972203 -2.7487298001833964 -4.113413741005284 -3.2488478503843594 -3.0685680751857727 -3.012857212412202 -2.5855214253724452 -3.152351644173905 -3.2551875027457498 -3.363005370312622 -2.7359868501816296 -3.8609384710285815 -3.1858998429384484 -4.202668550114843 -3.2739462018029135 9.705326011310607 -4.1419643179940655 -3.6947942953328154 -4.845334783062036 -2.6295340269283725 12.504703112721312 8.881875788984168 -4.293271327037618 6.804883824775558 7.253789538637138 9.764903234668264 -5.289951230028063 5.288849526361357 -5.142220100606737 7.631311562146301 -5.267193387029719 -9.096422407781281 -7.196176002771076 -6.358968241909602 -6.625634740238213 -3.8562333551858523 -5.014651086887453 -5.078078865184752 -6.889685253103961 -5.061001619001985 -7.407926713099563 -4.980375420707491 -6.464541505897676 -5.319578861338351 -13.267619381480994 -9.887457747125511 -6.001456004580533 -11.711169520939315 -4.600479297302388 6.117147275217062 8.378492247617494 -7.401199382324828 15.275500293932964 6.2374798811562515 12.090187684618792 -9.588993411385399 7.049343522036025 -8.161599832505932 4.536875198677126 -5.390885065498365 -4.883792124507054 -5.037024118438165 -3.754840999656595 -3.180587381147524 -5.5006574727863295 -4.698630366749731 1.6442426551186275 -3.622295727209024 -4.8918953195407155 -5.029259379251976 -6.401810248894472 -5.256242819137135 -4.151048135979511 -5.521405153718282 -3.333651145092676 -5.71718826357902 -4.422265958236136 7.685321295487209 2.6002634599057615 -1.6081906209571484 5.097908319251688 7.7855610640972035 7.60290318962549 1.2340045096822567 5.102292951773514 -9.339910506070135 5.9180194414003715 -11.214853112031472 -3.038398254252402 -4.385926157403324 -6.571833258496316 -6.813317465453006 -4.652580672948623 -6.874630284551837 -4.282709879594456 0.800673255211032 -6.47097404512918 -6.154589920512155 -7.192718455590118 5.582519947798924 -8.444792385264167 1.028547205873329 -4.103712790481397 -4.380996531144131 5.376963291166271 3.50717386527298 -4.735098212316428 4.379795813258912 5.233345428046609 5.233526789502356 9.946417679722854 3.660610141817078 2.9939497331512386 4.2512472080027095 -5.380402642526482 -4.712164117636475 -4.350742718366499 -7.890010280901436 -4.055253754294423 -6.039797189187525 -4.287193609472063 -7.192703248981754 -5.720159770385843 -3.481801519655745 -7.118810303587441 -3.294946957890948 4.728714793094252 -4.831493213918192 2.06110562329687 -6.6910028361874625 4.775234756677748 3.3136960290326116 -5.423607360029955 4.620418466377521 8.177870308504373 5.587471483245219 3.4953632518235875 2.8108292546545366 1.3354906180391775 4.117106759793529 -4.6730347234380405 -3.773843393791569 -5.705139952818837 -5.461969094254822 -6.764136311972663 -3.819538400210333 -7.588601761990251 -5.1226487269261085 -3.885234140648944 -5.129919740266228 0.27456305903997036 -7.810300123046036 -4.864643420691572 88.32054736850515 -4.54784437772107 3.5995163499671348 2.559655945458073 -8.820461566209937 3.199570033809432 3.50888139192184 3.5675206483697655 22.608644005835753 2.591651645086626 17.862604109707114 2.878833792252657 -3.7306167883150407 -4.863370862804648 -3.801153607854933 -2.334300026026361 -3.18728331124103 -2.1308313991594146 -4.369626981561488 -2.786497088020341 -4.906333876195656 0.8057251291696512 -0.991466693144059 -2.8943135684787458 5.533539717104418 -3.507918878432725 3.802299094591352 3.0231441637794116 -1.4735203654625095 3.2991412102864333 5.805006912722413 6.4003224274684944 -0.9728098415343651 3.749903910443646 -1.2386085625006231 3.118192016447922 -3.584319680329868 -3.811382289257551 -4.157796076981599 -3.5193161575612724 -4.6794668240004285 -3.5872765859353346 -4.362399297708453 -3.6031464996226696 -6.445265560311838 -4.664313181465064 -6.043532176476333 -6.867067631822633 -3.1352547871973875 8.287965955654006 7.8755555265296255 -4.5573413862298615 10.532519741545212 13.121637010054995 12.157094997547189 -6.883111414978405 7.798865599591291 -8.081001860780253 9.150882686424744 -5.123612955821574 -6.480369969819459 -3.7656605857571526 -8.223746180020939 -5.470992382640251 -8.199007491633944 -5.69469844601576 -11.47898111510848 -6.77956798376422 -6.209072571271221 -9.830210884078541 -4.093318903068746 2.510771401465918 8.652263509005753 -8.037743866137138 13.816162301228756 11.922473684265587 12.725575019838653 -14.21029299821012 5.072001174765872 11.363307787371626 11.05837125588356 -4.979230927123273 -3.8519177204469073 -3.564989336365514 -4.8892801684940155 -4.635349168339119 -6.6958184576053394 -2.3535525596945313 -2.5726957038404428 -3.8783099951825712 -6.109967869695519 -3.9177699178710634 8.675709630013715 4.633792825225188 -7.450031945186613 3.1245223750848146 7.460590514364334 9.745673959128736 -5.744309823376371 3.8323037812865324 -2.8141753364738706 4.837732245464593 -3.951485714170709 -6.158691489606834 -2.676127927090588 -7.614631173147476 -6.459884344640234 -6.538972148936775 -7.504792245224126 -1.4701027666061892 -5.449849051010247 -5.186791297342719 7.117084665343004 4.639728693172732 0.8965548570700289 4.80846708802559 4.342040781969287 6.733946781749323 -11.372934729967879 4.715971984706431 11.079790419310303 5.36673841371077 -1.255187999090036 -6.709414294319736 -2.968747089648747 -4.507216017574539 12.914274901936992 -1.2771704640873034 -2.9985458259095203 0.3475847512832227 -4.05487467428259 5.006416044928232 3.4387179082977477 -0.21220602397439375 4.432970550482605 3.6105359662253513 5.004687443059563 -0.6010175555728708 3.4868814996868127 -2.6772891618681376 3.166605450194406 -4.145095462210373 4.773362919543285 -13.006725334548145 3.741494774376602 1.632426287037701 1.4540449738525971 7.707268233460518 -4.902945912574858 3.892973554081728 4.300180940233716 6.792865872754954 3.883258248985349 6.7206254609802105 6.462966621793758 5.269619198084124 0.9346479239521575 5.560508473832177 5.111312592217668 -4.155328005077041 -5.784025041932597 -7.224153254960736 -4.923464576824726 -4.091860126887339 -3.403860705731645 -3.811988721404038 8.309240016908326 5.580305306092012 -7.731045403243723 8.435540471488256 9.55992038406326 8.113058875427633 -4.7226626841293475 5.779524020510735 -6.097565968852549 6.558075210089108 -5.046497507735033 -0.040748874274752524 1.6599120326317551 -2.0839304863870454 -0.0726379957734405 -5.1512129680903325 8.627200069749213 4.346917540912784 -1.940957010664572 6.679617690866189 5.233032461409272 7.864718884122698 -0.8982816770596844 4.334344831333757 -2.1790214145513156 5.699971128015959 -8.89871516490937 4.482452101007455 -5.661239632504263 8.61143289152587 -4.1716250228279295 11.455774346676302 9.884833618612232 -9.283674190031496 8.710108269446648 11.096766492075798 11.33860951249213 -4.098028816236437 6.994020506534492 -7.489708588194423 8.484907806154405 2.8873349542151066 4.808948601102528 5.234025075092158 -7.35995404597179 2.100592338919217 1.5775502252539608 9.179577895612178 1.743992381775806 1.8258626893281786 1.873455772579451 5.203269880436813 1.6383236064626243 6.123930877202331 1.7218182098339758 1.7011283314597143 5.1446161045036725 -7.092664147208853 5.7357229070464815 3.9319568154801265 2.9538058731639247 5.495388500806456 6.086860062300411 6.258655581088438 5.21665109143338 3.833852530194864 6.462811592439512 4.680549310821455 0.3670420625889106 -4.521695398933782 3.8499218077966164 3.730574875050549 0.4024508512296467 4.766192434350508 5.529658843106215 5.752983545900124 4.629086986629975 2.5439960663144667 3.5028690143985814 4.371581591280697 -7.066109552971485 2.392108418841279 1.7622246726690705 10.305221533590103 2.1657248008327685 2.200089870672064 2.382449070431847 3.919295481989745 1.7819143338088748 5.57566601871241 1.8652963226066521 5.502693962397276 3.962331019070415 -4.911398032290199 4.940936013252618 5.286007771097689 5.502693962397276 -8.610308751056463 3.962331019070415 -8.198846116991353 4.419172625783599 0.6931471784024834 4.315956270561357 0.6931471784024834 0.6931471784024834 0.6931471784024834 2.258363177677701 0.6931471784024834 2.1573694555928955 0.6931471784024834 2.984467644404914 0.6931471784024834 0.6931471784024834 0.6931471784024834 1.642100873754039 0.6931471784024834 1.5747149366074007 0.6931471784024834 3.8575958340302416 4.316079987671132 4.359608195297027 8.63267394557224 2.815416054899942 7.451057252882614 3.364506818834529 0.6931471784024834 0.6931471784024834 2.0623894931102753 0.6931471784024834 2.0158269705893708 0.6931471784024834 0.6931471784024834 2.229143515434952 0.6931471784024834 2.1955941293292325 0.6931471784024834 2.258363177677701 0.6931471784024834 2.2152254315425446 0.6931471784024834 1.6704421375416214 4.693685076738094 1.8477516358357766 1.6441554012029025 0.6931471784024834 1.843485498636599
probB 0.07857895336111174 -0.4065256614895451 0.03603603049120911 0.4441390033018098 2.500840321908454 0.20753779903047578 0.60022547964878 -0.3474134068180579 4.281501019674726 0.5824462100374568 0.9072922642956839 -0.0014748534944471648 0.9604710999926589 0.11254444228924938 1.7217571329460708 7.396296048591202 4.352444894953338 7.672212266972341 1.5476933062877352 0.11307551295080709 2.0992749789321437 1.1350153702863626 5.230428137845005 3.293155206378984 -0.5591183441296439 6.107707450315459 4.558488283434441 0.8347728464117389 16.82174053045161 -7.098417554010603 4.139702935359736 -18.65848180220547 5.206862596991156 -5.95413911856046 -25.668366770821997 5.259796218518607 -9.44711734276995 -16.654583649567527 -9.630797132454946 0.11832954194409386 -2.9688215416587136 4.188795081985202 -6.54393833835051 -0.19192935900829733 -0.14700085130861143 -0.0972451273169108 0.03719438787034951 0.07978675029451163 -0.14513817451866623 -0.3991542562438986 2.060710299857892 0.1651169193003797 0.2971734095422402 -0.12641456927247333 0.6664360182787954 0.24844548309916525 1.4190366446653468 5.762356513647875 3.259746699421458 3.1143797902654926 1.4117483734734535 -0.12255615524904515 0.43027464429219153 1.6746861622525173 3.775065785322008 4.29417975846903 2.506361674010608 1.1729410434448144 1.7463512740930018 0.9372417707066732 6.8288731603710735 4.967762371279961 4.032045367091138 2.645393820912652 1.0249895073931334 -27.980487190984594 -14.85869645620968 -2.4280467001484314 -18.163769474309152 -20.056950982412136 -29.87563640772294 14.788310538528911 -19.00047046208971 2.8706480577196545 -17.99706244170518 0.005680702550956187 0.2812805676252665 0.24426413293129756 0.3725518943010907 0.28571998924857134 -0.15990731238580336 4.362124456855708 0.26597289286920134 0.5667725363607987 0.19344171580057684 -0.0771135787669325 0.4848334265549169 4.551332488737882 9.706492183325189 3.8788320107068524 2.805487673926099 1.9068800374516501 0.16470781611000235 1.3340321090840113 1.4367150417334469 2.7893826858242576 1.515545767176976 2.2444579189667686 2.31854026706769 3.1676960916527186 1.0666049359512215 9.148440572344546 7.452759610881022 1.7382081337740707 9.899786076591752 2.086103049540988 -5.154451757124166 -30.94050690353284 7.212725450325769 -30.18757702290702 -35.59166715619359 -41.88914363894841 17.712617302298124 -4.4457474114974085 -20.130831185023304 -26.993062697664136 0.13260511588220697 0.12163206418242843 0.2628733604364036 0.0846574378324815 -0.2238997815967942 1.0089256449152049 0.26616972787949933 0.5936402683272393 0.11767523774844338 -0.39947171888017696 0.1460279274914181 0.7595621746697171 2.3410607942139237 2.453456633528932 1.7814849600754497 1.179904250910028 -0.12820929429581973 0.20811462412912096 0.8014893909649587 2.09033071506892 7.120554254682132 4.629679265941839 0.508719624174156 2.086846582621037 0.9422279871482466 6.9074630135745885 4.509416019174036 3.596366324642182 6.735885213403923 1.4383681915629882 -24.06750469636697 -16.28043176419436 3.162845695450697 -20.393018510480612 -25.672888186867176 -24.49534809890044 9.700271700409147 -9.033044570208697 7.904155879675471 -19.004551409733985 -0.03197615617939164 -0.4794144594364112 -0.03987141043494495 -0.2831717899131536 2.336767257612357 0.3165396970567944 0.33533494161007465 -0.11722274619676418 -0.16211784368752408 0.13278541367598562 2.469414028802677 4.632629988239311 1.1812737397091506 2.6922486027377053 1.7246765321109379 -0.14205028532486427 0.2283310494739242 1.2877028867367268 3.936450001256085 4.728402568430151 5.358735310911013 1.450896590905038 2.152199909697299 0.5416862881250882 8.703716692488316 2.0586337153483565 0.451554928505198 8.06934898082081 1.7264861350932186 -18.661211964565407 -14.192850709091063 4.526777147625757 -9.482151749670281 -21.250149069201044 -20.1798509641866 3.5729170263280863 -8.147040895409695 -16.659345191732186 -10.16120260166659 -0.9565251795831414 -0.37424473653710083 -0.6109227338480822 0.8805170339248206 0.23948060939491012 0.1283372038651021 -0.15434059976830203 -0.22078284290795447 -0.31732733485825504 1.7875214480781716 2.9779978107957845 2.0964340021110557 2.426644944786116 0.7630538970094873 -0.08294722571303323 0.215546630470598 1.0201050025460554 2.309400123852532 0.8713251362548006 1.8629203655485365 1.5056719089398773 1.1799787010405602 0.11237834143728682 8.810290371832343 3.40572984833464 4.801503814583129 4.7697925912329815 1.6261863105218868 -17.89888519393339 -9.776301582933733 4.108172312051139 -10.862201058773039 -11.230240372488769 -11.735614366016703 2.2116835590104786 -9.180210935323547 4.94806492761167 -10.058687257382687 0.36175921584986 -0.07911015740057149 2.642334490429245 0.7337446914543057 1.33124005022072 -0.29958895083130604 -0.09530211964879783 0.7116022400405778 2.3935571594331733 1.321909559669907 1.9649410981715472 4.951081602542214 4.152084702118511 -0.2513471128836562 1.8875392665748176 1.9393186202886767 3.0027933595696927 3.2075301030872123 0.5657562190988298 -0.8700404813448941 1.3593747162481984 4.378821041376351 7.30570211919396 9.324633686414803 3.758797194438749 10.372058080204283 1.2247305969077693 -1.5086887096483927 -5.471937964489954 3.5710148955291285 -5.205848017967235 -6.001063728496821 -3.078907575112597 1.2168236019380863 -5.7813543597404555 -2.480721169274666 -20.221611771235807 -0.25742510232447824 2.486054845497582 0.26675634578645097 0.4601824496519986 -3.9864686982839443E-4 -0.3609161830351221 0.43481565106693887 1.9125202288205 3.9796408262844363 6.555794039756781 3.6007063414432343 2.1115438315414194 0.013072534824518051 0.7931351188562004 1.8929355214686205 4.755326497734247 1.5010836535125018 8.260223666492864 1.4578285236272626 4.099616237926099 1.5051358436450668 6.70534747800651 8.454431431889276 -1.169458033259882 11.816153279412694 1.6454212319315211 -25.327058239954557 -14.917419688190037 5.697404315808636 -8.133218142452002 -20.25940618910672 -12.844452690632743 18.898476702484427 -18.28619205031527 -9.937581919601119 -24.16769465740167 1.5675453092309843 0.27634277185765443 0.4297396433848577 0.1241504339594275 0.05768418897148319 0.3698782665641526 2.1095807333862564 4.410403975160066 2.883954116271072 -16.847136449906394 1.8810809897180891 0.23201021072096645 0.3728612612286718 1.4858215696205648 3.9800982068576936 3.2178997650691916 4.517328882687285 1.557103470442166 2.4411397864655298 0.9708358335694198 6.862569964628386 5.400295159969869 3.7667000460311604 8.489136787141053 1.735350565234514 -30.39489587357376 -18.333555842550176 5.318522775799907 -42.091412835447194 -30.469493169106457 -10.772718095866932 11.983794027110363 -17.545631812980243 10.188583931136044 -21.197135169248483 -1.1060925770691843 -1.323485723177415 -2.323992626982629 -0.34151214428220655 -1.6557709443588384 -0.059543513967575644 1.4054269811752056 -0.23941814815006585 0.47019461767921206 0.03395361716733984 -0.49207270102846024 -0.991483961571794 -0.6952369491280898 0.5216883921777554 0.6561180011856452 -0.12098367498164027 -0.5948366282419352 -0.32436368411063105 -1.3008290555815207 -0.9534455814214303 -0.1046533245668375 0.6187633038845509 -0.7306616814787137 1.2630935033378303 -7.2783525457541876 -3.479272239423799 0.9006747274275904 -5.1571470906454415 -5.739389520516938 -5.0203926588318675 0.059587524652506066 -5.067156953615491 2.9241422680900486 -5.378037301523926 -0.08491919299950652 -0.1683023140162582 -0.14526014569787155 0.046110561301122455 0.505399480461152 2.043849951199108 1.8837961208992313 -9.762207175752824 1.0075008606210012 -0.0942598419901692 -0.1438391337430024 0.5445141465960623 1.2954059791640498 0.6253037453781178 2.1272351489055907 0.32723274114764633 0.7753684939287614 -0.06621818145407314 4.7200340728136965 2.341564275655212 2.016644929470822 4.685173782066518 1.1327102234291466 -10.031152467887285 -8.507209738503995 2.149269685103196 -10.657728478528393 -15.402893108186154 -12.276997654780766 6.814206186822974 -8.89048159269253 5.88885642492459 -10.027039789718835 -0.48119085038089676 -0.32241019145962796 -0.10778499005614967 0.7240289076870458 2.8923534720754933 1.0248496368069593 1.7383968537748005 1.105729711635414 -0.20639970276151293 -0.07002512205333586 0.6982072263668032 1.361962246338015 2.802654273588006 3.3861492596769547 0.7159375963064855 1.5401605744744644 0.15632955919758892 -14.300655542591572 -0.581563141359274 5.788863247305801 7.071568421073298 1.3764013882355857 -15.26128415315553 -9.714025100516485 5.423822031419421 -14.156836927993194 -8.617564129787826 -9.647950186563847 -2.536611383160032 -10.59013342008729 -10.703973948271885 -10.861745368099685 -0.26625439898819175 0.21110481437678996 2.5169125395631764 3.851620228457583 4.161960960908062 2.2293917164183252 3.4816746572198194 -0.16187805834158583 0.35442163847856384 1.093153843284319 2.5205068497346286 1.2149880506322261 4.413301704858688 0.7317179781955698 1.970345621998505 0.5804343342777915 7.638881605061033 4.29246192319383 2.781411617628055 -19.151153793162493 2.4072006497829337 -10.13125476912419 -11.744482349419979 3.8238269150898327 -19.884170956672133 -22.73087181325311 -23.01975646049646 12.451211503665801 -8.945371915465502 8.890101196019282 -14.390564085895994 0.3290688003460978 0.2484922730863963 1.1056253099425992 0.4170095365074013 0.5627582617015409 0.4201945703926839 0.09086624847384182 0.2338979031972487 0.22934145668541803 0.5387385499447135 0.31419973702283455 0.663889445619481 0.12927507784097936 -0.00468875909540521 0.0980177230765454 -8.833446325608916 0.8672939882817574 0.7408490418851875 1.898329486879604 0.33091116719713376 -12.563356126651342 -8.913024849124044 1.5005113422335183 -7.455394606281149 -7.671137057471853 -9.99131793412647 2.2861020549591204 -5.667100909689694 2.071782224760018 -7.897005584031635 1.2722594858672307 4.579174526320188 3.060675568996496 2.3726067035969094 2.3700655723034503 -0.12845841628987734 0.4245342832407461 0.9203708732538584 2.5463157907540936 1.3678037013673499 3.1383767548669566 0.6684321595532448 1.9112219059576938 0.4145369518110415 8.90329157443488 5.321918938649431 2.1875171931895907 7.317582446720846 0.7374387003243842 -9.009721206998233 -11.09064300492965 3.2523541818184944 -17.8949099801088 -9.084364146718379 -14.835028007639446 5.734032922791558 -9.778365289177435 4.446929458889562 -7.3792393153461875 0.9109594079212742 0.06277865486649713 0.900614284285735 0.37447721454767524 -0.341014402829308 -1.4519657914118755 -0.4502805271298506 -0.18897857793820796 0.0797190735713682 0.24152459389183675 -0.8230161728085321 -0.8256296152859467 -1.1154271902187054 1.3451606324664178 0.3324439656920249 0.3691388738706226 1.9221565941471557 0.08049344895550484 -7.240162849400139 -2.781289047963156 0.15072540417984137 -4.845530552109341 -7.266416755615491 -7.157551247459922 -1.0746201379828955 -4.6477890809724745 4.0108139682272475 -5.441664358608331 -2.6211667115476676 -0.47459606622061884 -0.5030219836606725 -3.0347817884940453 -2.739182368781293 -1.1333043477881226 -0.38676460327328477 -0.34959178284410247 0.33782393821138923 -1.9881662188862228 -1.602097925298045 -2.890731150258115 -2.3191003459831077 -0.8205510791718541 0.0993166709283622 0.5815511631233381 -0.1764453398654038 -4.695378295240073 -2.8911294321010352 -0.2108861943232156 -3.8580699286663056 -4.647417568840899 -4.64757489125717 -3.0246878516874633 -3.0058441118015082 -1.579009189867916 -3.6403009964249016 0.8228700202346877 -0.04662801213063684 -0.717023007519794 -3.14282676712648 -0.3578013128875388 0.24972332880709877 0.15620656808224065 0.36976577262110777 -0.8002472874979449 -0.31894521065899806 -2.10953930297264 0.7811916876110845 -1.3363157899754314 0.29341491999511005 -1.8915099126936656 1.6977453616662581 -5.331976336727167 -3.841284775461301 0.7898911582417306 -5.06906190532165 -7.673486013018166 -6.030544958586592 -2.7554657323490015 -3.416227732361498 -1.5488765069242505 -4.585627436538782 -0.4432824757324876 -0.8464193959851247 -1.791973039468101 -1.4023103440126716 -1.0063057610993587 -0.23308408817001888 -0.7145911556716016 -1.2834516199974133 -0.4195101652709337 -1.7506013855687685 -0.07320124398224889 -0.8308456286357336 -0.25267275184310584 -16.072353267691756 -0.15901666358432662 -2.906369169523048 -1.8665087650139687 -0.09101650187532202 -2.5064228533653377 -2.8205455312429577 -2.8743734679256776 -4.6645337615651625 -1.8985044646425222 -3.9593680562482354 -2.186144100059297 -0.7372175222982552 -1.1615251879803452 -0.4580105559163753 -0.0889823457086325 -0.010233811249369158 0.035201349515090005 -0.5321829486297216 -0.03230170072616293 -1.2393701356848097 -1.4047178188077956 -0.18828859386214752 -0.11286835575675638 -3.0135106223255264 0.08555910831683262 -4.512624858302275 -3.579413029922937 -0.043348170435061395 -4.0290118026696575 -5.909456032880213 -6.262296814930036 -0.4463820569392023 -4.02975181726363 -0.37510548935492466 -3.745592065068467 0.19486401074524348 0.21218491685427018 0.9255260366156902 0.4852654068139869 1.148474592383905 0.2542646159423631 0.5444773488051332 0.12297536126595665 3.327478596353073 1.1071440304097346 2.338477158520954 3.3368810840282186 0.4306100595188162 -9.343613226919093 -8.6372860220813 1.313385586737086 -11.241852731179986 -14.010019225113625 -13.057598581455405 3.365386921746364 -8.66072441671645 4.487867112861753 -10.03952873726103 0.6837064665924714 1.9713400986093665 0.7193848811954929 3.331423952150496 0.8003378807125583 1.4167275947736506 0.11605259118181249 7.009059525231297 2.6049960201437425 2.803260454249876 5.582529379735398 0.6846593154511776 -4.637050705260405 -10.185219642206942 4.137214811392774 -15.30180753994875 -13.57380359845192 -14.359328307856307 9.465959064973353 -6.898314485383724 -12.009459040137758 -12.499508008115393 0.900403664353008 0.49248815752319525 0.67795310665149 0.04440782967350846 0.26158418398499234 -1.1763692555887757 0.2311566136880191 0.2740839301513287 0.6417273716853924 2.570737893518847 0.4993695720434007 -9.60964745410607 -5.625241854762896 2.359009665812193 -4.464401842794612 -8.441342480656667 -10.64977261046438 2.523653167738715 -4.933465968717428 0.5115250243432435 -5.88542026353138 0.13510467556641823 -0.04366684010654554 -0.4089911780415776 -1.5579406357860164 -2.13185803753397 2.493673718376528 0.6588238587947985 0.016158143477065807 1.5521362650730761 0.9049257584915283 -6.477313857343619 -3.999363664593304 -0.42846499055800075 -4.342109954459017 -4.316466927542407 -6.152173887030733 4.1407419233268135 -4.075806231255708 -4.515719445955513 -4.7412011770020195 0.18325927205834477 -1.9237443953577333 -0.13388566976540603 -1.045098790081896 -4.849482338088181 0.10058904874458476 0.4363810750859387 -0.695514750492542 0.8159083974619762 -5.010048712280121 -3.423728968237189 -0.17761428595783438 -4.43158987795619 -3.8141285225475694 -5.009024675266405 -0.3326204670706701 -3.473284397481852 0.5869698851950667 -3.2749300062949755 -1.0319837522714346 1.8029750142341672 -4.647902426107419 -2.5607509918062408 -0.3468823019826006 -0.3008001773129122 -3.8234331618077415 0.2524270285775473 -4.368451051928346 -3.7416930258957843 -1.8182473285182819 -4.275855267880471 -6.187053069238219 -5.983739263654711 -2.9776671327614928 -1.76399318634621 -3.06036054962014 -4.560213773270741 0.4986308580910349 -0.4812681997394197 3.5860141942524684 1.2503643303612695 0.48386395500555873 0.8598873353565986 0.5974055145712334 -9.043357166730859 -6.198755713404635 2.3420216054233642 -9.162114607185824 -10.228243650461852 -8.844059226837635 1.8516944750045432 -6.381857886463634 2.708315738054062 -7.368656672806212 -0.859917636271625 -1.295096265425801 -1.3602886726392893 -0.0621460299478598 -1.2777775215219689 1.1522514855112178 -9.227132662528172 -5.062238520376453 -0.09510735697846603 -7.4521182186339 -6.2546073810130105 -8.652820892220614 -0.75834089000314 -5.177977989052432 0.09004151408003284 -6.463242802698337 5.063733435258707 -3.4956460801409395 2.019686804387332 -8.821623369332277 0.7962923444655771 -12.532933908627124 -10.652681202986209 4.288485422197772 -9.975426243691759 -12.162018856160884 -12.524565654515749 1.4952668288887458 -8.18088660389502 4.021079651826362 -9.503848978623957 1.8482769543626703 2.4747115322836417 0.5191594377336225 -2.196216888846492 -1.4172138446731537 -0.8899669671471108 3.2396967760855278 -1.0693768613402792 -1.179034332834969 -1.1884083156173684 0.39340527740153525 -0.9512943855654628 0.35085465431100205 -1.0355227723170293 0.12987576548354426 -2.465814143848317 1.5251126885459465 -5.197896242217609 -3.2786186924481187 -0.47191037421741633 -4.817963024196982 -5.425653216692871 -5.58786183390139 -2.1717789790976068 -3.21157166192678 -2.7394022125681485 -3.991204879582996 -0.7008047179943742 0.5710411616901605 -3.8075443699026654 -3.207886128469328 -0.2844955167411198 -4.3509095065446814 -5.099214452467414 -5.275888174378515 -2.369376558698578 -2.4488727679456885 -1.7499990255911373 -3.8895269036588065 -1.5324724704274872 -1.6991040973009457 -1.0690774922249575 2.7185265603237836 -1.4727031587918997 -1.5364045283124472 -1.68930188998774 -0.09144880008924688 -1.0887671533647618 -0.22593938857022608 -1.1785095481964158 -4.885615572541272 -3.339214518906867 -0.3186721899078275 -4.32204721716074 -4.7163986502198165 -4.885615572541272 2.11196448439753 -3.339214518906867 2.160481057802632 -3.8124945896396354 2.391895380739567E-16 3.6709522139543207 2.391895380739567E-16 2.391895380739567E-16 2.391895380739567E-16 1.565215997233593 2.391895380739567E-16 1.4648497503201783 2.391895380739567E-16 2.333835408234333 2.391895380739567E-16 2.391895380739567E-16 2.391895380739567E-16 0.9495641263913231 2.391895380739567E-16 0.8832232317691089 2.391895380739567E-16 -3.211042686428648 -3.681788385781551 -3.714735778182735 -2.481874948723222 -2.1721496403282714 -2.30439759275074 -2.7255971391387575 2.391895380739567E-16 2.391895380739567E-16 1.369242312666165 2.391895380739567E-16 1.332762564512203 2.391895380739567E-16 2.391895380739567E-16 1.5370533692877308 2.391895380739567E-16 1.5082558238243877 2.391895380739567E-16 1.565215997233593 2.391895380739567E-16 1.5336468953581783 2.391895380739567E-16 -0.9772949570975078 -0.08560417380818836 -1.1546044553916643 0.9544488160205468 2.391895380739567E-16 -1.1573991901293903
nr_sv 228 44 44 32 41 19 197 39 20 6 10 20 28 5 33 4 4 6 2 6 8 16 9 4 4 5 8 9 11 2 4 4 2 3 1 1 3 1 1 1 2 1 2 1
SV
0.0 0.0036678434494219476 0.01923848223136629 0.01031836404693572 0.01457005802568525 0.08076914802897862 0.0346000287803461 0.1740035657763584 0.0 0.028601190028649144 0.011896129662150211 0.020515270181813382 0.00837096335627038 0.023114663365260364 0.02259425778492037 0.0 0.0 0.009577728467721827 0.008512392413058636 0.0 0.0 0.039355817905176116 0.0 0.009386134504659716 0.0 0.008204814365499656 0.0 0.0 0.0 0.0 0.0036988330555118385 0.003744173913202116 0.0015416548140455048 0.0 7.692353223407314E-4 0.011873977539029003 0.0 0.005294643358361991 0.0 0.0 0.0 0.008474628428002829 0.037139390039384206 0:1.0 1:1.0 2:1.0 3:1.0 4:1.0 5:1.0 6:1.0 
0.0 0.0 0.0 0.0 0.0 0.04728936005666509 0.0 0.0 0.0 0.0 0.0 0.004496867114212752 0.0 0.0 0.0 0.0 0.0 0.0 0.0 0.0 0.0 0.0 0.0 0.0 0.0 0.0 0.0 0.0 0.0 0.0 0.0 0.0 0.0 0.0 0.0 0.0 0.0020708707067528154 0.0 0.0 0.0 0.0 0.0 0.0 3:1.0 4:1.0 16:1.0 17:1.0 18:1.0 19:1.0 20:1.0 21:1.0 22:1.0 
0.002417887754154988 0.0 0.2888153557275716 0.0 7.657944026228633E-4 0.0 0.0 0.0 0.0 0.007899028532230625 0.0 0.009774930813973084 0.0026456759718789693 0.0 0.0 0.0 0.005204491349790023 0.0 0.0 0.0 0.0 0.0 0.0 0.0 0.0019815292419438036 0.0 0.0 0.013974688282593413 0.0 6.91965937527518E-4 0.0 0.0 0.0 0.0 9.874658872125422E-4 0.0 0.0 0.0 0.0 0.0 0.0 0.0 0.0 8:1.0 9:1.0 22:1.0 23:1.0 24:1.0 25:1.0 26:1.0 27:1.0 28:1.0 
0.00701980235381254 0.5 0.0 0.016802505306143616 0.012840699213081406 0.10509316207487633 0.08258799525214841 0.002861197333871158 0.0 0.0 0.0 0.0 0.0 0.04627918175296164 0.0 0.02495932886307741 0.02088731056727018 0.00233950348878722 0.0030188597066756694 0.016951673292110656 0.0420856151272709 0.0030696494344309693 0.0 0.0 0.1051926678845125 0.0 0.06870829398350323 0.006157513279725508 0.0 0.0 0.048551689946146094 0.0019244237833566705 2.9318317097322036E-4 0.014741286754167327 9.823268617528964E-4 0.008405074931673343 0.0 0.0 3.9361308924998415E-4 0.018300315730212038 0.08335452398019592 0.007733023463794042 0.0 19:1.0 26:1.0 27:1.0 29:1.0 30:1.0 31:1.0 32:1.0 33:1.0 34:1.0 
0.043120220346550775 0.0 0.0 0.003073325510529602 0.023720235373901177 0.19852904569492244 0.2022598642000343 0.02681435854335705 0.004399715722882266 0.001835209899475895 0.0 0.003527077257148348 0.004617782054427297 0.0 0.00589154198257114 0.11980867904912851 0.0035995250049435682 0.00565110614380022 7.650637542054683E-4 0.02320682230945845 0.03619171548857457 0.0 0.0033508454010913995 0.0 0.02715194611483178 0.010478251331145879 0.012463520927362071 0.009272259772044098 0.0 0.0 0.029548078657478938 0.001962109258483282 0.007951406226683675 0.0 0.018196427120964316 0.022168643549722065 0.0 0.0 0.002217669248470308 9.880710933498887E-4 0.0 0.11823730235495664 0.0 24:1.0 30:1.0 44:1.0 45:1.0 46:1.0 47:1.0 48:1.0 49:1.0 50:1.0 51:1.0 
0.0 0.0 0.0 0.0 6.863780321615109E-4 0.0 0.01817671326038788 0.0 0.061398606776609514 0.0 0.0 0.0 0.0 0.05571703671581784 0.0 9.44492804012352E-4 0.0 0.0 0.035649651488956664 0.0 0.0 0.0 0.0 0.02682555380141916 0.0 0.01777030544684163 0.015311467185755594 0.0 0.022128416563863443 0.0 0.0 0.009927878204077945 0.0 0.0 0.0 0.0 0.0014211886452494495 0.0037671481251566256 0.0 0.0 0.0 0.0 0.0 3:1.0 4:1.0 10:1.0 20:1.0 34:1.0 53:1.0 62:1.0 63:1.0 64:1.0 65:1.0 
0.01618142189748756 0.03984735464150959 0.05216875092298347 0.010961528768684439 0.0 0.04542001297411568 0.024202010049076482 0.006947059489677201 0.04483377589109885 0.009850717427378818 0.22599055682291586 0.057003881574399104 7.684681829241559E-4 0.04312086540025704 0.0 8.552181406538612E-4 0.02704980088855582 6.615924787116764E-4 0.020763473110260396 0.0033090866532820788 0.010614950632949207 0.0 0.0 0.021707604893109075 0.0 0.020896150727828838 0.008731589639913202 0.0 0.017239536215748568 0.021509358274402195 3.7860748879194875E-4 0.01070678341272354 0.0 0.004255753437722726 0.0011254202519688456 4.995916798725046E-4 0.0 0.0022976525152449915 0.0 0.01971598912121495 0.0 0.0 0.0 10:1.0 26:1.0 38:1.0 43:1.0 53:1.0 62:1.0 63:1.0 64:1.0 67:1.0 68:1.0 69:1.0 
0.002999448926169413 0.0 0.004514271244673026 0.008573333312221473 4.0082131796570497E-4 0.03805890859627879 0.04567630411355851 0.0 0.0 0.007920322151291211 5.209605083063978E-4 0.008639219179006799 8.816542395523224E-4 0.0 0.0 6.446424149885149E-4 0.0 0.0 0.0 0.019541179926321626 8.478286475869061E-4 0.0011764212395720367 0.001581274256924128 0.0 0.00876648422309161 0.0 0.0 0.007214227502419096 0.0 0.0 0.0 0.0 0.0 0.0 0.0 0.03534410554365209 0.0 0.0 0.0 0.001130654657102181 0.0 0.0 0.0 30:1.0 45:1.0 46:1.0 51:1.0 66:1.0 70:1.0 71:1.0 72:1.0 73:1.0 74:1.0 
0.0884765919803926 0.0 0.0 0.025176864918782255 0.03058556417476392 0.12628339571411024 0.01797133952351551 0.014297376605304394 0.025759050706832334 0.006578540939285118 0.06689744716006943 0.0 0.032654294022910736 0.020832655468391536 0.0020570445411210634 0.002289488607499306 0.011206013189795798 0.0068739721909126805 0.007726887956735337 0.0031007212100733297 0.0 0.003815635650116175 2.885342097895399E-4 5.817387490332586E-4 0.0 0.026182669454894628 0.032795693629632715 0.07286778919889036 0.009519586834627548 0.02696161144742339 0.0 0.012410919548240902 0.010580682316999896 0.0 0.003493448132017955 0.0025431794906137315 0.0 0.0 0.0026466710969087065 0.0 0.0 4.883859255118325E-4 0.06610012338145352 53:1.0 63:1.0 66:1.0 83:1.0 84:1.0 85:1.0 86:1.0 87:1.0 88:1.0 89:1.0 
0.0 0.0 0.0 0.034042677780976915 0.0 0.04950295649975674 0.0 0.0 0.004986368992835774 0.0 0.0 0.0 0.0 0.0 0.015503988490545568 0.0 0.0 0.0 0.0 0.0 0.0 0.0 0.02181030619386915 0.006933004409075194 0.0 0.0 0.004406587103546862 0.0 0.0 0.0 0.0 0.0 0.0 0.0 0.0 0.0 0.002111253099997634 0.0 0.0 0.0 0.0 0.0 0.0 16:1.0 17:1.0 18:1.0 89:1.0 101:1.0 102:1.0 103:1.0 104:1.0 105:1.0 
0.0 0.0 0.0 0.0 0.0 0.0 0.0 0.006380426211477736 0.0 0.0 0.0 0.0 0.0 0.0 0.0 0.0 0.0 0.0 0.0 0.0 0.0 0.0 0.0 0.0 0.0 0.0 0.0 0.0 0.0 0.0 0.0 0.0 0.0 0.0 0.0 0.0 0.0 0.0 0.0 0.0 0.0 0.0 0.0 0:1.0 1:1.0 22:1.0 26:1.0 27:1.0 138:1.0 139:1.0 
0.0 0.08246286262248843 0.0 0.0 4.6359591660839533E-4 0.0 0.0 0.03308421400674262 0.0 0.0 0.0 0.0 0.0 0.0 0.0 0.0 0.003121161130048276 3.0427972253160916E-4 0.0 0.0 0.0 0.0 0.0 0.0 0.0 0.0 0.0038349701453110107 0.008588288576513774 0.0 0.0 0.0 0.0 0.0 0.0 7.808160434033061E-4 0.0 0.0 0.0 0.0 2.0121022042861585E-4 0.0 0.0 0.0 0:1.0 1:1.0 26:1.0 27:1.0 141:1.0 142:1.0 143:1.0 144:1.0 
0.0 0.0 0.0 0.0 0.01918527613839683 0.0 0.0029208604899501186 0.0 0.06965474607952313 0.0 0.0 0.0 0.0 0.052517054006516725 0.0 0.0 0.0 0.0 0.033661857470415855 0.0 0.0 0.0 0.0 0.01488102173779467 0.0 0.01129138559111859 0.003115493072774064 0.0 0.007920140736695577 0.008947367654915498 0.0 0.003542598038573955 0.0 0.0 0.0 0.0 7.442276063653212E-4 0.004876307346803353 0.0 0.0 0.0 0.0 0.026982242501368287 3:1.0 4:1.0 10:1.0 20:1.0 22:1.0 53:1.0 150:1.0 151:1.0 152:1.0 153:1.0 
0.01197547286673068 0.039359027644416476 0.03167197735808828 0.003807864151148782 0.021728183086631873 0.012521423584570061 0.012647883415170334 0.004761614372958686 0.0376505494044997 0.0 0.07657727006111929 0.013289665358741962 0.0 0.03639977869072053 0.0 0.0 0.02441378382268595 0.0 0.03246386747237158 0.0 0.0 0.0 0.0 0.0125669111395608 0.00217166640046249 0.002399470867639893 0.006112599583234 0.0 0.004489737741002727 0.0 0.0 0.004348472609505334 1.7094794359200926E-4 0.0013824046135523028 0.0011365656331112366 0.0 0.0 0.004176057784646198 0.005711661676109416 0.0 0.0012236783085387076 0.0 0.020813756347553735 10:1.0 26:1.0 27:1.0 43:1.0 53:1.0 68:1.0 69:1.0 150:1.0 151:1.0 152:1.0 155:1.0 
0.0010643908459201253 0.03228673498204945 0.004538024194559015 0.0033633242324122925 0.006079294665880628 0.02499507247855219 0.0753660418726506 0.005566608249130419 0.0 0.0030569597402409785 5.609170403898134E-4 0.004527848308633091 8.07179362364978E-4 0.03530257497425088 0.001816069335831423 0.0040667237482499875 0.0 0.0046152162215824495 0.0 0.0885671332583558 0.04132563681627021 0.003478677451165322 7.304211012336304E-4 0.0 0.0 0.019305309662918987 0.009909169299506759 0.005912674225778234 0.0 9.750271426663272E-4 0.003806412562774856 0.0 0.0 0.005710520673542154 0.0 0.0 4.654891605665318E-4 0.0 0.0 0.0 0.003806761504107535 0.023574164165051918 0.0 30:1.0 31:1.0 46:1.0 51:1.0 71:1.0 72:1.0 73:1.0 154:1.0 156:1.0 157:1.0 
0.058256094626491714 0.0 0.0 0.0 0.029126510879032192 0.06362764915558558 0.011272146673823107 0.005891193473002833 0.02613625788783073 0.0 0.07694769014973789 0.0 0.0 0.022035766749584657 0.0 5.898611129287963E-4 0.0018479422335845122 0.008027967015649723 0.012729814731504911 0.0016303663239750027 0.0 0.0 0.0 0.1003995809970738 0.0 0.010742672263200435 0.03547455211113205 0.04068615127234405 0.011112455954259828 0.010073776009926752 9.400103888431153E-4 0.01181801235288208 0.0014784388623760142 0.0 0.0042221835825272756 8.661933773442126E-4 1.5984120506062888E-4 0.0017118044524089648 0.0029245775383253863 0.002787755568175515 0.0 0.0 0.0 53:1.0 63:1.0 89:1.0 103:1.0 104:1.0 154:1.0 161:1.0 162:1.0 163:1.0 164:1.0 
0.0 0.0 0.0 0.058277798772045725 0.0 0.0 0.0 0.0 0.0 0.0 0.0 0.0 0.0 0.0 0.011452734616547059 0.0 0.0 0.0 0.0 0.0030190817963595094 0.0 0.0 0.010198500834217111 0.0 0.0 0.0 0.0 0.0 0.0 0.0 0.0 0.0 0.0 0.0 0.0 0.0 0.001285621867946955 0.0 0.0 0.0 0.0 0.0 0.0 3:1.0 4:1.0 17:1.0 18:1.0 20:1.0 100:1.0 181:1.0 182:1.0 183:1.0 
0.004600657636558233 0.0 0.08312082545490099 0.0 0.0 0.0 0.00574944257278465 0.0010349392658431315 2.7652423644369914E-4 0.0 0.0 0.0 0.004042464329063658 0.0 0.0 0.005982062513245993 0.0 0.0 0.0 0.006486785010272603 0.0 0.0 0.0 8.755772310989074E-4 0.0 0.0 0.001213709207387933 0.017309155097911692 0.0 3.431026573443447E-4 0.0 0.0 0.0 0.0 0.0011025051590140321 0.0 0.0 0.0 0.0 0.0 0.0 0.0018772624509561192 0.0 8:1.0 9:1.0 23:1.0 24:1.0 89:1.0 103:1.0 104:1.0 184:1.0 185:1.0 
0.0 0.0 0.03573540180352574 0.035804395562574164 0.010561921610274427 0.08537238157541213 0.011119384104918561 0.0060321833190651675 0.0 0.0035398064088020876 0.03616448662973805 0.44397466656199347 0.0 0.0017106672137615093 9.401556782494354E-4 0.0 0.010387139101372626 0.001020713755744925 0.004625393382332879 0.0 0.006695774836379495 0.008770610118032525 0.0 0.0 0.00732531185670956 0.016311827774579214 0.0 0.0 6.912016716525787E-4 0.004835719685017209 0.02032704317116735 0.0013590894211506267 0.0 0.0015919653412813533 0.0 0.0011827797178344628 1.9779764033039723E-4 6.211923673659353E-4 7.086227205892804E-4 0.010058767746754484 3.82551398568915E-4 0.0 0.0 19:1.0 26:1.0 34:1.0 94:1.0 107:1.0 108:1.0 186:1.0 187:1.0 188:1.0 
0.04770437883509857 0.050174852991782516 0.008711401631709408 0.005512009288178168 0.01161419018584696 0.16363217785820708 0.06943627679071929 0.0024472682377788013 0.0 0.006712528859970934 0.0 0.013520415493045322 0.00815178721087128 0.0 0.0010582124942927324 0.08476955732968285 0.0031987564075032135 0.0029506832350363783 0.0 0.03664461686757132 0.04470321266674123 0.0015834307383069707 0.0 0.00115719629520674 0.02160480906580179 0.02273664982981904 0.018440835126964126 0.012911810688731758 0.0 0.0 0.03161324507016432 0.00226928172137246 8.828381331352715E-4 0.0 0.0025519492996251988 0.028194645301502397 7.019096493390808E-4 5.06467921067108E-4 1.757048371098991E-4 6.208779253057829E-4 0.0 0.04571428160504798 0.0 3:1.0 24:1.0 30:1.0 45:1.0 46:1.0 196:1.0 197:1.0 198:1.0 199:1.0 200:1.0 
0.0189891333174824 0.0974166998267697 0.0 0.0 0.00903982294489006 0.23560568868384252 0.06809253266473629 0.0012284563288002042 0.0033955899547674327 0.003996048191552378 0.0 0.0 0.0 0.09812822084194775 0.0 0.020075133534035016 0.0 0.003985551863759376 5.544675439059431E-4 0.0406630523996395 0.0027776011143606895 0.0 0.0 0.013976815723464433 0.0022530697766107535 0.07477348727988067 0.12008253936501617 0.04038332027124808 0.0 0.0011774863577003129 0.0 0.005215141356446097 0.03584240677771018 3.4326702543464345E-4 0.0 0.05021442327947484 0.0 0.0 0.0 0.0 3.3614492673301186E-4 0.0 0.0 30:1.0 89:1.0 97:1.0 103:1.0 104:1.0 212:1.0 213:1.0 214:1.0 215:1.0 
0.0 0.0 0.0 0.0 0.0 0.0 0.0 0.03810253591530861 0.0 0.0 0.0 0.0 0.0017008632942440531 0.0 0.0 0.0 0.0 0.0 0.0 0.0 0.0 0.0 0.0 0.0 0.0 0.004216432246013138 0.0 0.0 0.0 0.0 0.0 0.0 0.0 0.0 0.0 0.0 0.0 0.0 0.0 0.0 0.0 0.0 0.0 0:1.0 1:1.0 3:1.0 4:1.0 22:1.0 230:1.0 231:1.0 
0.025093482613965504 0.03258420830586605 0.24445923741125913 0.0 0.0031819330111897584 0.0 0.05344020825741988 0.0 0.0 0.0 0.0 0.0 0.0 0.009641373143399187 0.0 0.0 0.0 0.004820912861260871 0.0 0.010301495852941758 0.0 0.0 0.0 0.0 0.0038460368561106556 0.003366092211177366 0.014713239854484294 0.0024739374788345487 9.510155357833889E-4 0.0 0.0 0.002143730162015182 0.0 0.005417675120084927 0.0 0.0 0.0 9.049225989276129E-4 0.0 0.0 0.0011292470026802585 0.0 0.0 8:1.0 9:1.0 10:1.0 26:1.0 27:1.0 89:1.0 232:1.0 233:1.0 234:1.0 
0.0 0.11222007084733987 0.11435308336096489 0.006164253383448505 0.0 0.0 0.0 0.013635576111395412 0.0 0.0 0.03316410309617383 0.008882882239647496 0.0 0.0 0.0 0.0 0.003578991782609371 0.0 0.0 0.0 0.007636052312895538 0.0 0.0 0.0 0.0 0.0 0.01009665996691474 0.0 0.0 0.004151541021169282 0.0 0.0 0.0 0.005617254370574618 0.0 0.0 0.0 0.0 0.0 0.0 0.0 0.0 0.0 0:1.0 1:1.0 26:1.0 94:1.0 200:1.0 236:1.0 237:1.0 239:1.0 
0.029228753600339285 0.008279657270779433 0.0025968180590041946 0.0 0.015712799966425852 0.036968457159406096 0.02150287227539438 0.0038227372365375713 0.017642402511454457 8.76589175835388E-4 0.028365366106069535 0.006265331781085448 0.0018772038951126115 0.13982068217764543 8.777018639802714E-4 0.0017395587547034972 0.012338746552158955 0.0027908012187622157 0.0709341924763912 0.0044608005622524234 0.006822344165459577 0.0016103749013969212 0.0 0.021807036614451922 0.012363507120648345 0.020563301159521055 0.017395304725362715 0.007281921229395775 0.01616050436431395 0.04868646380611855 0.002900490224897674 0.01759055776815218 0.0012312836987849315 9.01771568943483E-4 0.002513026356090524 0.003236653903927149 0.001496101593646175 0.012672669882419217 0.0014525368434481858 0.005713014733164176 0.0 0.0016670522674462544 0.004178379037487432 10:1.0 53:1.0 143:1.0 208:1.0 246:1.0 247:1.0 248:1.0 249:1.0 250:1.0 251:1.0 
0.035446234579459064 0.011864562630553965 0.01249078681433229 0.016422586639669775 0.0631943698890968 0.18230867507140347 0.5 0.08413132502721396 0.02849466178510516 0.01971300620164472 0.00658237040765188 0.022624072564941977 0.00737733304837609 0.03131320000499416 0.02220372950335868 0.011899406182673523 0.005457863143828429 0.011233331233602765 0.044144183908020856 0.006912038427322978 0.022393708791830984 0.05768169130846586 0.01908277819391575 0.0036218083216159086 0.03977351179775934 0.018419739044639335 0.015787696410672663 0.020627529993669496 0.01616487036170286 0.004384355114127747 0.009787272215165153 0.009140946430097874 0.006253462495146281 0.0 0.007075656729657484 0.011363546447434958 0.0030816598505542586 0.0037709541808356906 0.01449677821688968 0.002027806641223351 0.0 0.008477845370411621 6.783000004327217E-4 48:1.0 148:1.0 213:1.0 252:1.0 253:1.0 254:1.0 255:1.0 256:1.0 257:1.0 
0.023969330731192857 0.0 0.0 0.0035738784770905294 0.06224852651191298 0.06612621623487018 0.01851113223230146 0.010606920784267145 0.016084953083832173 0.005391870480557722 0.0 0.007832316775547432 0.004329230509899251 0.019741873114552656 0.0032456170269748396 0.0014930958860394814 0.0 0.004529656091056736 0.010435399420505424 0.002071172408342107 0.001355795385034504 0.00408581801077338 6.198815406538971E-4 0.0 0.0065769258556195075 0.008949133020034205 0.0010383335704825451 0.013533272184840123 0.0017628982387560112 0.03998166325402354 0.0026262740622533106 0.0 0.0 0.0 0.004390342986350707 0.004877201066964557 6.482678822321513E-4 2.4060176471341486E-4 0.011204206649437736 0.003795091158794991 0.0 3.049144949152442E-4 0.004450625477421484 51:1.0 53:1.0 151:1.0 258:1.0 259:1.0 260:1.0 261:1.0 262:1.0 263:1.0 
0.5 0.0 6.480827785912337E-4 0.011370049655705265 0.051444336289755296 0.47262752762071575 0.03765408640627322 0.020071021412947965 0.06497959949346918 0.009239546076355692 0.03572327877165469 0.0 0.0027364012624141554 0.006139065024636785 0.005088987248983948 0.00201377921091353 0.013832927788777568 0.003735250490008515 0.1481961358853917 0.0030518569294985722 0.0036141965553881223 0.008844967114959724 0.0019182259978618443 0.013182245335315621 0.16714993676005732 0.014519649274430828 0.03375726491571886 0.024616579017513213 0.004269175243220891 0.04136673545230308 0.0010293066443870075 0.0685765259066447 1.7592477810885964E-4 0.0 0.004281509614848951 0.02520859602474892 7.221447852978756E-4 3.12342448937204E-4 0.0016553395089872911 0.016576866614657404 0.0 0.016226356242038987 0.0 12:1.0 13:1.0 14:1.0 15:1.0 53:1.0 63:1.0 197:1.0 213:1.0 271:1.0 272:1.0 
0.0 0.0 0.0 0.0 0.0 0.0 0.011542054432874762 0.0 0.0 0.0 0.0 0.0 0.0 0.0 0.0 0.0013975754081365613 0.0 0.0014501068106181623 0.0 0.0 0.0 0.0 0.05467501923154865 0.0 0.0 0.007652830520056339 0.0 0.0 0.0 0.0 0.0 0.0 0.011787068733161318 0.0 0.0 0.0 0.0026554901549412572 0.0 0.0 0.0 0.0 0.0 0.0 3:1.0 4:1.0 17:1.0 18:1.0 20:1.0 66:1.0 89:1.0 201:1.0 273:1.0 
0.0 3.0997040072474187E-4 0.07312194379055152 0.194722929729225 0.0 0.0 0.0015724609881312551 0.0 0.0 0.017758313461022142 0.0 0.004572165395516284 0.0 0.0 0.0 0.0 0.02636919059895083 0.0 0.0 0.0 0.0 0.0 0.029344891060023304 0.0 0.0 0.0012837279798079255 0.010744154455608793 0.0 0.0 0.019734727395889086 0.003441261627415611 0.0 0.0010493516796555072 7.063966447832599E-4 0.0 0.0 0.0 0.0 0.0 0.0 0.0 2.0198454364990607E-4 0.0 17:1.0 18:1.0 26:1.0 43:1.0 66:1.0 94:1.0 201:1.0 274:1.0 275:1.0 276:1.0 
0.011265000285957089 0.02804291394653095 0.051472192870643904 0.30067110955177373 0.0035054560529514936 0.21853171836464894 0.009513863584279239 3.9897249197948237E-4 0.0 0.02578390484623478 0.06660971240649956 0.027728569237706186 0.0010359571149149843 0.007997392408050493 0.00703373750984824 0.0 0.04297550307056555 0.0019215226205001276 6.496645039218603E-4 0.0011892688245909696 0.08575988637102096 0.011306683134112792 0.047799912415518314 0.0 0.002893711892756602 0.00503871974221149 0.027575566074911403 0.006581984194611711 7.944098067266274E-4 0.02808219659632831 0.00834596581698123 7.787367592882227E-4 0.0013213281283059835 0.005463698370548817 0.0 0.0010235113800344095 0.0036495002999534423 3.3878904992371874E-4 5.650439398623181E-4 0.0 0.0 5.667677149393325E-4 0.0 17:1.0 18:1.0 26:1.0 66:1.0 94:1.0 201:1.0 283:1.0 284:1.0 285:1.0 287:1.0 
0.042375023016753284 0.10910252356903216 0.021129679964284796 0.020325005083731394 0.015404203408255782 0.2779176735412183 0.0873124576663438 0.0 0.004221020929693266 0.0017740790636902148 0.0 0.009829671540225897 0.005499572542331925 0.08575943479820028 0.004204037204506265 0.020460085392065855 0.014055242479526027 0.003578249604985887 0.002919856626248921 0.028613223864951548 0.010726904925038874 0.006060817895290116 0.002822343029435753 6.618396770752069E-4 0.004859322956309589 0.026311038057820323 0.022906193310393674 0.014044282720630985 0.0011025488506278545 0.006197508640586349 0.030261065201944107 0.003924717724241577 0.013879934429771458 0.0 0.004769766607413826 0.0 9.91106636285996E-4 7.201692801249595E-4 0.0012964038866223656 0.0010799443328789401 5.533949390986719E-4 0.008435111174081203 0.0 24:1.0 30:1.0 39:1.0 40:1.0 97:1.0 121:1.0 288:1.0 289:1.0 290:1.0 291:1.0 
0.010688207560140212 0.0 0.006923192568604366 0.011721844934552389 0.05926674143184063 0.11985678307297402 0.0 0.03460491167193814 0.007853003372179044 0.014521534551906572 0.005135140721706669 0.020860034451606203 0.012225941039073929 0.007018809509528988 0.03229544612733784 0.0 0.0019437594209153588 0.013245125953252704 0.0 0.0 0.0 0.265723042469596 0.020736503522545517 0.0 0.004891701936101922 0.006632145242404204 0.0 0.012099224337532395 8.73507609636132E-4 0.0 0.0043378867876726936 0.0 0.0 0.0 0.003841398503810547 0.0077817967070535 0.0 3.3409470897236053E-4 0.0031587224343659266 0.0 0.0 0.0 0.0 47:1.0 48:1.0 49:1.0 51:1.0 101:1.0 125:1.0 292:1.0 293:1.0 294:1.0 
0.013594864023617932 0.0038827388338773575 0.0 0.0 0.018213316823767627 0.062412087742926475 0.010242544004850973 0.0 0.0032791656808811545 0.004881154107478785 0.07739951506378036 0.006089445561091487 0.0 0.011263343391437999 0.0 0.0010264827913745462 0.023017130000724754 0.0 0.005902890019147674 0.004686481892508363 0.0016959420155807925 5.49653029078876E-4 0.0 0.0039015347586647485 0.0 0.011102598519267107 0.006022441600932969 0.013980938885012454 0.006452361453413566 0.022131260686990624 0.001916353514826759 0.004371198387761569 0.001968126944609624 0.0 0.0 0.0017660191061649125 0.0 2.1645881642533534E-4 0.0 0.0 0.0 8.526444621505519E-4 0.0 3:1.0 4:1.0 53:1.0 63:1.0 66:1.0 100:1.0 209:1.0 300:1.0 301:1.0 302:1.0 
0.03332282137102082 0.006063527022450499 0.1083393363058832 0.0 0.018822117100094307 0.0948840562987191 0.037171056162741856 0.005758684690925062 0.005350986938551454 0.013959096504875217 0.0034617745034179045 0.01831463838334926 0.0 0.016141546506717643 0.0 0.0 0.0 8.424914654173638E-4 0.003930355366485826 0.0021550845288504294 0.0 0.0038269357790556677 0.0027099396494245777 0.026881744263853265 0.0054681339989319094 0.01003113119028441 6.153455897864381E-4 0.044501644391426995 0.001694577877523789 0.0052883236056455426 0.002263567823956388 0.003977158763212873 0.0015138242941706763 0.0 1.6014065389746297E-4 0.00553558071292769 2.686048593758293E-4 0.001155997314147208 0.0013989852080060258 0.0025355139502583057 0.0 4.577207974342928E-4 0.0 8:1.0 9:1.0 66:1.0 100:1.0 103:1.0 104:1.0 303:1.0 304:1.0 305:1.0 
0.0 0.0 0.0 0.0 0.00923906503628038 0.021792474785346332 0.028128866143826165 0.006183315463841315 0.002126035466987393 0.00439906094242257 0.0 0.017415039417537283 0.0 0.008831623276443526 0.0 0.015836166741803586 0.0 0.0033215877858114072 0.002122998752171893 0.0 0.0 0.0 0.0 0.016442012912387966 0.011908934136261456 0.01908060915274227 0.08875696015002316 0.06711175972380361 8.451469292599134E-4 0.0 0.0 0.0018465375994084034 0.0 0.0 7.844199339675918E-4 0.0 0.0 5.461372525513883E-4 8.144481574426772E-4 0.0 0.0 0.0 0.0 19:1.0 89:1.0 103:1.0 104:1.0 107:1.0 108:1.0 205:1.0 306:1.0 307:1.0 
0.0 0.0 0.0 0.0 0.0 0.0 0.0 0.0 0.0 0.0 0.0 0.0 0.0 0.0 0.0 5.663628770752723E-4 0.0 7.140454871691493E-4 0.0 0.0 0.0 0.0 0.0 0.0 0.0 0.0 0.0 0.0 0.0 0.0 0.0 0.0 0.0 0.0 0.0 0.0011800339636599275 0.0 0.0 0.0 0.0 0.0 0.0 0.0 3:1.0 4:1.0 17:1.0 18:1.0 20:1.0 89:1.0 101:1.0 315:1.0 316:1.0 
0.0 0.0 0.0035871963965716652 0.30122697364402345 0.0 0.06778930696726854 0.0 0.0 0.0 0.004242742372976816 0.0 0.012463134094926595 0.0 0.0 0.003790707629473407 0.0 0.03156708712973773 0.0 0.0 0.0 0.02066314481464126 0.0 0.0 0.0 0.0 0.0 0.0 0.0 0.0 0.0 0.0012735796150884914 0.0 0.0 0.0019942288041841574 0.0 0.003570277862005303 0.0 0.0 0.0 0.0 0.0 0.0 0.0 17:1.0 18:1.0 26:1.0 43:1.0 94:1.0 101:1.0 275:1.0 276:1.0 315:1.0 317:1.0 
0.014365787036191412 0.0 0.0 0.0 0.05097996101659261 0.19752237806950784 0.02835189969188699 0.009450690219382392 0.011749051031780507 0.012703458757799234 0.0 0.0068806305568840966 0.0029293906666929457 0.009215420255555462 0.0 0.0 0.0 0.005473490909562141 0.002913311874917383 0.004394253559249661 0.0 0.003947588044718197 0.0 0.012814408948571197 0.0019695165158984613 0.006353581124563425 0.014874958416778276 0.03785409715196923 8.830742186037731E-4 0.001032575414178942 0.0013252207573196477 6.839546320309032E-4 6.387228790648262E-4 0.0 0.0018435003793180202 0.010628305556216218 0.0 9.052088103856064E-4 9.51226880415047E-4 0.0 0.0 0.0012859313187072426 0.0 76:1.0 89:1.0 101:1.0 103:1.0 104:1.0 281:1.0 282:1.0 320:1.0 321:1.0 
0.0 0.0 0.0 0.0 0.0010311178418375125 0.0 0.020243549017513494 0.1396296301780296 0.0 0.0 0.0 0.0 0.0 9.640723233938558E-4 0.0 0.00277914366771359 0.0 0.0 0.0 0.0 0.0 0.0 0.0 0.0 0.0 0.0021075259511786535 0.0 0.0 0.0 0.0 0.0 0.0 0.0 0.0 3.729757765088292E-4 0.0 0.0 0.0 0.0 0.001473096017054587 0.0 0.0 0.0 0:1.0 1:1.0 3:1.0 4:1.0 34:1.0 340:1.0 341:1.0 
0.0 0.0 0.1193635317371347 0.0 0.0 0.0 0.0 0.016495126551920595 0.0 0.0031367500556658775 0.0 0.06893384321156613 0.0 0.0 0.0 0.0 0.0 0.0 0.0 0.0010952345361202782 0.038031267995166804 0.0 0.0 0.0 0.0 0.0 0.0 2.6733685261790365E-4 0.0 0.0 0.0 0.0 0.0 0.0 0.0 0.0 0.0 0.0 0.0 0.004039018496692979 0.0 0.0 0.0 0:1.0 1:1.0 26:1.0 38:1.0 343:1.0 344:1.0 345:1.0 346:1.0 
0.3163351998682904 0.0 0.0 0.0 0.009691521533552462 0.25649441514436927 0.01566240306600085 0.11180221834819368 0.0 0.0 0.0 0.0 0.00517243243925295 0.014675061420289627 0.004144380521654108 0.0 0.0 0.003662408721169701 0.0 0.004984827292366511 0.0 0.0 0.0 0.0016627882041852211 0.002319953206620208 0.0634512658360649 0.0 0.024944475286283907 0.001976917005825199 0.02543985529343421 0.0 5.763926673409242E-4 0.0 0.0 0.0022350007456345706 0.03848394355593591 4.126319680723481E-4 3.371835168924705E-4 6.142648792495368E-4 0.0 0.0 0.0 0.0 0:1.0 1:1.0 12:1.0 13:1.0 22:1.0 360:1.0 361:1.0 
0.0 0.0 0.0 0.0 0.0 0.0 0.0 0.0 0.0 0.0 0.0 0.0 0.0 0.002890525903450553 0.0 0.0 0.0 0.0 0.0 0.0 0.0 0.0 0.07353759828578599 0.0024105701034953745 2.4435337282861395E-4 0.0 0.0228926790242261 0.0 0.0013384478552833541 0.0 0.0 0.00196843677872528 0.0 0.001559585176800431 0.0 0.0 0.0 7.030927885917849E-4 0.0 0.0 0.001036932478076407 0.0 0.0 10:1.0 17:1.0 18:1.0 26:1.0 27:1.0 275:1.0 276:1.0 362:1.0 363:1.0 
0.00893518329642418 0.0 0.0 0.0 0.016093244401339513 0.09800165108718671 0.009447834531968655 0.004694667062872069 0.0 0.0 0.0 0.0 0.0012735206221079064 0.0063199232163892935 0.0 0.002453000121575225 0.0 0.0017578851366730145 0.001527238370362921 0.0017876498230053176 0.0 0.0 0.0 0.010648499568104415 0.0013400156795059064 0.0033209194979878323 0.004158411217030235 0.031192447657316474 6.319635343827122E-4 2.8727475322448096E-4 6.675491616980882E-4 0.0019615173860420363 0.0 0.0 4.467942643145879E-4 5.714047814312741E-4 2.7898951671633253E-4 2.455190809559113E-4 6.038967134182423E-4 0.001500398289926838 0.0 5.859484951656985E-4 0.0 36:1.0 76:1.0 89:1.0 103:1.0 104:1.0 281:1.0 282:1.0 366:1.0 367:1.0 
0.0 0.007756992397019111 0.03573680463680464 0.029065841729793873 0.013782371172176445 0.11231959693962928 0.0235741986417987 0.006935291902277815 0.0 0.00451034804761543 0.0406315909340329 0.3929780198590918 5.586243107896225E-4 0.008571439683552477 0.0012986570111664477 0.0 0.012995141919222547 0.002451487214064716 0.005040925515205168 4.1007450629965527E-4 0.013389604775797034 0.009910206673993747 0.0 0.0 0.0044050830147682836 0.0032628301057594077 0.0 0.003432937984058473 9.8706078505854E-4 0.006648279058691071 0.0 0.0020059106981662076 0.0 0.004192380816885096 0.0 0.002551211039514831 3.055115560121291E-4 5.897057024367993E-4 9.295507341141075E-4 0.012055095028508364 0.0 8.726293363026117E-4 0.0 26:1.0 34:1.0 94:1.0 107:1.0 108:1.0 323:1.0 368:1.0 369:1.0 370:1.0 
0.012606185878704724 0.09686976245758964 0.016878923308485796 0.289633529809694 0.0015322966863994165 0.19769292706783284 0.019318874167975706 0.0 0.0 0.02313411107098691 0.004786387402132954 0.10714796402245903 0.0013025674206891432 0.010499643715884783 0.0 4.630103562336396E-4 0.0 0.0019354492874628741 0.0 0.0047514560290730385 0.09622350271747071 0.0 0.06123424945592584 0.0 0.0 0.007188621944915345 0.04168551462099863 0.007357004895180317 5.195174756764503E-4 0.0 0.0021146799126588248 2.8700701435028136E-4 0.0 0.007048268222976721 0.001207607847178468 0.0015859653210746746 0.021701282317105813 0.0 0.0 0.006892082994654978 0.0 0.0 0.0 10:1.0 17:1.0 18:1.0 26:1.0 38:1.0 362:1.0 372:1.0 373:1.0 374:1.0 377:1.0 
0.05514399122812238 0.0 0.0 0.007061756840434045 0.013778623380578824 0.3025275814330163 0.09960208665773283 0.0012062238049081215 0.0030167802674832887 0.006651962947559798 4.4491928603959934E-4 0.01107283440659836 0.007877867041445906 0.1057624744418354 0.002645155262720379 0.021245407983741398 0.0 0.003841317657671416 0.003940592601217527 0.011481146148012066 0.0017686636693427943 0.0016069832992670259 0.0022900924848641676 6.676463705980925E-4 0.09344495355974997 0.03224815472108139 0.0 0.01096049033129368 0.0 0.004941453172747657 0.04961498374420182 0.004176955744133172 1.649481061053614E-4 0.0 0.003375591814722288 0.028121484061890745 8.688197323957409E-4 6.408667228354302E-4 0.0011557506504997258 0.0012888428198753804 0.0 0.026247805346406944 0.0 22:1.0 24:1.0 30:1.0 45:1.0 121:1.0 378:1.0 379:1.0 380:1.0 381:1.0 382:1.0 
0.002049867757869956 0.0 0.0 0.0 0.015506214455019717 0.05518321413875416 0.00669310060898659 0.0 0.0 0.008846216949664297 0.008622665020772732 0.009973663357191024 0.010554887823627186 0.0 0.0 0.0 0.010894957876486335 0.0031896689048777787 0.0 0.0 0.0 0.2104309172730889 0.0 8.674253864822635E-4 0.0 0.0012106536086468323 0.020426813041696086 0.010447107470279665 3.7577742888514646E-4 0.0023642225089957657 0.0 0.0021932758165474522 5.949048423354753E-4 0.0 0.0 0.001312728521393072 0.0 2.2724461444058918E-4 0.0 0.014158508835194532 0.0 0.0 0.0 22:1.0 26:1.0 27:1.0 55:1.0 125:1.0 383:1.0 384:1.0 385:1.0 386:1.0 
0.016864402495729274 0.09531929355430722 0.0 0.10465487294908163 0.01752366740994853 0.5 0.019797869726710784 0.0 0.0 0.01754737689741634 0.0 0.045672671807979744 0.004924584380402143 0.010094914247548702 0.0 0.001918936803168925 0.018182181055041033 0.0037637899788966586 3.917836589487369E-4 7.768058887787817E-4 0.005632814216652287 0.03502418636925078 0.0 0.0014660706859595278 0.04470371271077598 0.003574388631156143 0.05509891187846507 0.029473360397831914 3.3943816371569146E-4 0.0 0.0 0.0017973562853753203 5.305791203127046E-4 0.0 0.002003225150950101 0.0046588094649468535 0.0 7.267345329254438E-4 0.0 0.017136687644715237 0.0028286438226338534 3.433329496566265E-4 0.0 26:1.0 27:1.0 36:1.0 363:1.0 391:1.0 399:1.0 400:1.0 401:1.0 402:1.0 
0.030585941404663045 0.006850586661391928 0.0069414024088892525 0.019357088617885442 0.058136321206351406 0.34152236150833337 0.048332226009127066 0.05191965487153136 0.014067636377787077 0.012420392497192657 0.006104345543554348 0.019827654673929475 0.015920309851124602 0.022455488209711078 0.01657499320692479 0.014314226283219605 0.0 0.010302028134902 0.01692373403203994 0.003315241478881828 0.003066750806471962 0.07698801794961867 0.011399494956217407 0.003601586642722927 0.010132208171368704 0.014289772484451367 0.0022311088877221804 0.03747350867239406 0.006692693348858687 0.0020831491838601973 0.008950549313902285 0.004214548599612599 0.0027367460330169372 0.0 0.006620544158703199 0.004937720287652806 0.004268311986545191 0.003578738318548346 0.004067284462319369 0.005845917311813364 0.0 0.0 4.816648644409183E-4 36:1.0 48:1.0 49:1.0 51:1.0 125:1.0 383:1.0 384:1.0 414:1.0 415:1.0 
0.01711356517142511 0.0 0.0 0.0 0.3601603922620943 0.3793936610344029 0.2636910597302165 0.5 0.13019676945620093 0.002865621232013971 0.0 0.002310927626897347 0.0069609848901568535 0.02523518064225721 0.024720920666856813 0.014239778819113442 0.0 0.06611700367914743 0.06115152972249565 0.01576470190148782 0.0 0.04913196286561837 0.23714950209932387 4.0515977443206675E-4 0.035694002390307386 0.01623876562464866 0.025998050741923823 0.005035770068940564 0.009307190360171243 0.0 0.005148620883159645 0.0046282677288560494 0.05190490461548876 0.0 0.010253120075126267 0.0010901441833297667 0.004231029253833494 0.0038737603974168333 0.004161681418517669 0.0011554398905427863 0.0 0.012514274391314755 0.0 0:1.0 1:1.0 48:1.0 57:1.0 100:1.0 417:1.0 418:1.0 423:1.0 
0.30714922104234443 0.007529210554236513 0.00878601990387955 0.017363114001337925 0.03904614123481282 0.5 0.057792640877832674 0.013904573566042019 0.0034231289183579653 0.017728879059510247 3.800876651027442E-4 0.1256122537820472 0.005943463396271679 0.021101804417771267 0.006154974352074059 0.004966479840778393 0.0021098616692641825 0.007314661378912305 0.012200680228008213 0.006853819916339544 0.005159911904315155 0.0336726299013402 0.04863014849845756 0.0010281630005226216 0.1323109399005054 0.019389710300584114 0.003262189886409892 0.07434838404068785 0.0010669000837246242 0.020060887073013726 0.011667372031868899 0.0048286138866462415 0.016849869524709227 0.0 0.0015745855856610683 0.030699749154873904 7.574413547244241E-4 0.0014593630494231912 0.0016255986162854066 0.006662394111841413 0.0 0.005536523759752768 2.1171499196278958E-4 12:1.0 13:1.0 15:1.0 66:1.0 107:1.0 108:1.0 297:1.0 428:1.0 429:1.0 
0.0075844245776388215 0.0 0.0 0.0 0.0018858718515754977 0.0 0.01022727023780688 0.0 0.0 0.0 0.0 0.0 0.0 0.005412770831722863 0.0 0.0033753204561510594 0.0 0.005330787600325508 0.0 0.003307234782949912 0.0 0.0 0.06018827504991169 0.0 0.0 0.004593174043702349 0.0 0.052261987110215 0.0 0.0 0.0019341500107007193 0.0 0.0 0.0 0.0 2.4271019711270017E-4 0.004868758063644755 0.0 0.0 0.0 0.0 5.604815302190412E-4 0.0 3:1.0 4:1.0 17:1.0 18:1.0 89:1.0 190:1.0 301:1.0 430:1.0 431:1.0 
0.01535035837308316 0.03275996798936885 0.5 0.011291303657019773 0.005400440432723826 0.052080690645195056 0.022096963070246722 0.0025935263229107178 0.001251842790740489 0.0 0.04165714997966372 0.0 0.01156882296585757 0.0032219815394786623 0.0 0.012182173548801729 0.008173984168906292 0.0039431360277720415 0.0 0.014549687895061524 0.11138434745325922 0.008052961215866319 0.0 0.0 0.00266486262343426 0.0028435129710368532 0.02692112955450719 0.006005398253392477 3.1298809784654694E-4 0.006482679845920044 0.003093232043221297 0.0 0.0 0.004856755843614752 0.0032564847327887676 0.0 0.0 0.0 6.057458070698806E-4 0.0 0.0 0.002984873629569445 0.0 8:1.0 9:1.0 24:1.0 26:1.0 89:1.0 94:1.0 303:1.0 432:1.0 433:1.0 
0.0073436947731265086 0.17148850025095194 0.11477209360055106 0.28334533555981517 0.0 0.204002136122849 0.029701613399293395 0.012452202392498554 0.0 0.0 0.10991636507434671 0.1116123916771231 1.330917294248557E-4 2.062246813991183E-4 0.0358370334824283 0.0 0.02203014402363755 4.456038493043448E-4 0.005334824278249299 5.245200561787844E-4 0.03377029775576891 0.008322073648779682 0.04834763046930088 0.0 0.0 0.0014577977810233574 0.0040323305961643355 0.02125026431244928 0.0 0.0019909172307837914 0.008589760884610295 1.641541043891498E-4 0.0 0.004968257549005393 0.0012013424260009634 0.0012647496928932234 0.002705163881571722 0.0 0.0 0.0 0.0 3.876901739741764E-4 0.0 17:1.0 18:1.0 26:1.0 68:1.0 69:1.0 94:1.0 190:1.0 312:1.0 430:1.0 435:1.0 
0.004013623536205785 0.013818361244104646 0.0 0.0 0.0 0.038292908663275366 0.03382340819776193 0.0012818296367642595 0.0 0.0 0.0 0.002834165962378291 0.005017054285482412 0.0 5.112436162291086E-4 0.008413506727854871 0.010314072769661975 0.0 0.0 0.06474280946686015 0.019922636450115286 0.0 0.0 0.0 0.0 0.0 0.0 0.0 0.0 0.0 0.0014306581440815369 0.0 0.0 0.0 0.003286757237716098 0.0 0.0 0.0 0.0 0.0 0.0 0.0015873032439341981 0.0 24:1.0 30:1.0 51:1.0 71:1.0 72:1.0 73:1.0 97:1.0 313:1.0 437:1.0 438:1.0 
0.030655583272128212 0.03779253482463313 0.020428699319965517 0.028153810842220104 0.0368526737925165 0.15952475516947054 0.0439442809396591 0.011310184680563239 0.015075409355015602 0.02901225318671187 0.1390129212397801 0.0398437496006853 0.005909517897454263 0.030136264529118176 0.015589297240457968 0.0036656979534634955 0.034794213689967365 0.008863199577610545 0.032610027416751494 0.004642908229855053 0.013339520224322353 0.02698892539803333 0.009101428064138753 0.03977541439339193 0.002473424925724586 0.019393770730101074 0.009059782373690048 0.015149261225775349 0.011888690228388255 0.051147904464698794 0.007125172442135002 0.03102217386015096 0.004997887809856997 0.0 0.004921617530715775 0.009426196481385696 9.903535418155666E-4 0.012647342466392071 0.0019707344535867806 0.003745073112254076 0.0 0.004858645349140045 0.03463486044623214 5:1.0 6:1.0 53:1.0 63:1.0 190:1.0 261:1.0 262:1.0 443:1.0 444:1.0 445:1.0 
0.0 0.0 0.0 0.04762206059886146 0.0 0.05344383928229361 0.0 0.0 0.0 0.0 0.0 0.0 0.0 0.0 0.0 0.0 0.0 0.0 0.0 0.0 0.0 0.0 0.01562746018237679 0.0040772419618418316 0.0010117756309314524 0.004248593585989805 0.01690689587270253 0.0 0.0 0.0 0.0 0.0 0.005999380598287906 0.0 0.0 0.0 0.0027575061404454516 0.0 0.0 0.0 0.0 0.0 0.0 16:1.0 17:1.0 18:1.0 66:1.0 89:1.0 103:1.0 104:1.0 451:1.0 452:1.0 453:1.0 
0.0 0.0 0.04153611940862245 0.019261426145147517 0.0018515141140364943 0.08103645743442772 0.004616258432638954 0.001553954511280725 0.0 0.0 0.021846965577469134 0.3793822866420979 0.004541123311100245 0.0 0.0 0.007913288221712186 0.01625828453025281 0.0 0.0016419622010965954 0.0 0.11158206168884036 0.004717246958961586 0.0 0.0 0.013886272315839464 0.0 0.0 0.015586491940136388 1.9829021987750282E-4 0.0014470043537351844 0.01781163700210923 0.0 0.0 0.002331225266751328 0.0037141822876005184 0.0 0.0 0.0 0.0 0.00647545016982135 0.0 0.0026260729669782576 0.0 24:1.0 26:1.0 34:1.0 94:1.0 107:1.0 108:1.0 454:1.0 455:1.0 456:1.0 
0.03155366303917771 0.006720769881345499 0.005515811386107235 0.01535370421100257 0.033378394648631064 0.4792902861300014 0.06101283090641787 0.0231069030952125 9.681319924961932E-4 0.009540134719546896 0.0 0.014382854943517192 0.008179543863573509 0.26517085449660005 0.002698228774111364 0.01720803269888044 3.2393846181295904E-4 0.003893765523915709 0.0 0.00462764417460129 0.0 0.006534571102782494 0.0012613841304490586 0.0 0.018661372460382228 0.0063268890771882285 0.0 0.015173680913882557 0.0 0.002376135317473775 0.048999407987349725 0.0011682598682693543 0.0 0.0010945963322130001 0.0032730694766745705 0.057512503381136684 7.491853903609837E-4 0.0 8.630688967421304E-4 0.0 7.530655514892166E-4 0.016243738144158353 0.0 24:1.0 30:1.0 45:1.0 121:1.0 463:1.0 464:1.0 465:1.0 466:1.0 467:1.0 468:1.0 
0.01817284662579119 0.0 0.0 0.0 0.02734691137962472 0.1625968232127093 0.0387508977231237 0.010731940396925753 0.002046597353279085 0.00865165173370119 0.0 0.0 0.01256786637191425 0.008121932181586978 4.2789778531327654E-4 0.0034927797517525705 0.0 0.0057406101570400105 0.0 0.00543129168200245 0.0 0.11896245752898534 0.0 4.31745517715119E-4 0.006022028518537488 0.014450573613499605 5.386253028890078E-4 0.019514803493531824 0.0013783729417610263 0.001594534157480978 0.009412047795632438 0.003552523178414367 0.0031445416951773773 0.0 0.002185570696793332 0.005925087267255831 2.8666855950881055E-4 5.975991957804581E-4 2.7206313733441615E-4 7.023593252759641E-4 0.0 0.003737764405065831 0.0 55:1.0 125:1.0 249:1.0 469:1.0 470:1.0 471:1.0 472:1.0 473:1.0 474:1.0 
0.027720533019236198 0.004177520053139537 0.0035395316272457647 0.0 0.028548693101848023 0.10224998963231427 0.08302811390637668 0.014066380105784933 0.004872015647569332 0.008967670714639636 0.0 0.00893615316980701 0.003783450878658449 0.023464128724520313 0.00405542864832957 0.006619853513044475 0.0 0.007426508908614062 0.008637659224472807 0.006535498931989072 0.12047572350344983 0.010653057424879216 0.0018804993705875993 0.019967525566316674 0.0033536309710798795 0.017628904782473805 0.0 0.0210443906187243 0.0019298903883756538 0.004268614217484971 0.0 0.005836789141377288 0.002956952090998151 0.0 0.002435737999088283 0.029030428968045727 0.0014602691543887016 0.0014151701528619801 0.001268348940806286 0.008096114625639242 0.0 0.0025488714740999744 0.0 34:1.0 103:1.0 253:1.0 475:1.0 476:1.0 477:1.0 478:1.0 479:1.0 480:1.0 
0.007781737602237984 0.036630610169286384 0.04542284615847592 0.07039810164343817 0.01325319197061613 0.19765054014391906 0.01752254601960484 0.0 0.0 0.03493670141460366 0.0 0.14283094649986366 0.0056672766273430245 0.0 0.0 0.0015567204883785287 0.0 0.002882372152042393 0.0 0.002749535648255631 0.09508983754145028 0.09894199073847774 0.0 0.0 0.002483059749609095 0.004249253132347766 0.0045349611020282145 0.007732564572948656 0.0 0.0 0.0 0.0 5.446938095062453E-4 0.0 3.918863178933781E-4 0.002666407242321648 0.0 0.0 5.808983349996727E-4 0.01730680766886434 0.0 5.988515143627166E-4 0.0 26:1.0 38:1.0 55:1.0 125:1.0 344:1.0 345:1.0 469:1.0 470:1.0 484:1.0 486:1.0 
0.07771196247483103 0.0 0.001313330113471619 0.0 0.05741782894516878 0.054848153665245085 0.037033441969089545 0.007879468835179811 0.03620627165636757 0.002572394187832505 0.03934437409753887 0.0065061139390299874 0.003713727051554335 0.09075433722392377 0.0 0.0017212162699172882 0.0 0.003244132767784454 0.028020430706945487 0.00924843421949439 0.0034352271034859307 0.0061139199795889505 0.011809296050053998 0.1166922530583441 0.003443265836544066 0.022176164265390957 0.016445501308583747 0.018962256671734096 0.01607524504987479 0.09957281591199796 5.26806569462727E-4 0.012650220940840656 9.862890036663498E-4 0.0018502298898580417 0.004060674577145009 0.00421855877445459 0.0029299283636534984 0.008129539543917645 0.0012351355524880389 0.0 0.0 6.685091049394234E-4 0.005456950652253035 10:1.0 53:1.0 100:1.0 261:1.0 262:1.0 353:1.0 354:1.0 494:1.0 495:1.0 496:1.0 
0.0 0.0 0.0 0.0 0.0 0.0 0.0 0.1341547459248187 0.0 0.0 0.0 0.0 6.311790134256971E-4 0.0 0.0 0.0 0.007229441805976644 0.0 0.0 0.0 0.0 0.019438924603821493 0.0 0.0 0.005138020074306271 0.0 0.0096883076743083 0.0 0.004815258793362773 0.0 0.0 0.0 0.0 0.0 9.339935869412599E-4 0.0 0.0 0.0 0.006607905209592603 7.080220452113308E-4 0.0 0.0 0.0 0:1.0 1:1.0 26:1.0 27:1.0 257:1.0 503:1.0 504:1.0 
0.03770248455696385 0.022522442611076422 0.010347967548502278 0.015687330854487726 0.06878299928723572 0.3295488108914744 0.13485937964494327 0.0864538074082962 0.01440674792105693 0.015250608308093314 0.010312629051352013 0.026086051389614 0.0068238690451814885 0.0321584372291301 0.0074589420237721575 0.026088745279685733 0.0034516929686600087 0.11051632572496081 0.031207608928256393 0.009248416294409452 0.00790329405069227 0.002231377342041398 0.009107523975738439 0.0010298510272259069 0.012126965388836997 0.020005871654838 0.008716419836798944 0.25281536674170246 0.007005172873363412 0.006909043634613353 0.011082643631213657 0.004179956140509204 0.009830247947066852 0.0 0.008366095677508473 0.007909802380303302 0.003144014185760228 0.0038839929567276144 0.004466049594572331 0.00731567406733868 0.0 0.00870948557042892 4.379597734390447E-4 36:1.0 48:1.0 148:1.0 265:1.0 266:1.0 508:1.0 509:1.0 510:1.0 511:1.0 
0.04291369351491157 0.0 0.0 0.0 0.025993476838286917 0.03236683784788961 0.033205830288673764 0.0 0.02648993583109269 0.0 0.0 0.0 0.0 0.07702200131854871 0.0 0.0034214614031704265 0.0 0.00609362529199106 0.08776835973050277 0.014899816646863927 0.0 0.0 0.0 0.02230593622718396 0.0 0.02148185488499049 0.03058403137544457 0.01457144077414857 0.013599915265967011 0.017330228051227334 0.002511981702299181 0.009426963521925623 0.0026003176036138954 3.4839665318945256E-4 0.0019544583075099685 0.0023748972879892223 0.0026694836854136515 0.006504112981888275 0.00240660432025773 0.0 0.0 0.0011193687951466804 0.008359711400673745 10:1.0 53:1.0 89:1.0 249:1.0 471:1.0 472:1.0 519:1.0 520:1.0 521:1.0 522:1.0 
0.01798440535036302 0.046541092443207 0.011486563959666393 0.033613663286765044 0.016280227396577755 0.10399507475040028 0.0395866274918979 0.006500530967971937 0.0021268524795886056 0.015524443595211757 0.057751770936968566 0.0 0.003337340452468145 0.014059493394741461 6.415293112379203E-4 0.003237574346371687 0.013791591471935637 0.008672364316805112 0.0014397472205310872 0.005891558687406743 0.49910596040688104 0.011878361597644356 0.0 0.0 0.0 0.01028263458068367 0.04072593320487242 0.015704733924565954 0.0010717380708265836 0.01038158909345397 0.004001986813732109 0.0018954950843124896 0.002847497029179631 0.007466287953276113 0.00118208602164359 0.00855286880182419 3.3004388723218624E-4 7.141408134018506E-4 9.837083745888864E-4 0.0 0.0 0.00152784307719956 0.0 26:1.0 89:1.0 94:1.0 253:1.0 475:1.0 476:1.0 523:1.0 524:1.0 525:1.0 
0.03585310743705269 0.5 0.047082869395064494 0.034951648781483845 0.015289285635127887 0.2867703070746155 0.08771363299968574 0.004935239120812832 0.0 0.0 0.06472036695352393 0.0 0.0 0.014623635670458584 0.0 0.015479069192028853 0.04376055240825052 0.003760647371578169 0.003060391593758685 0.015157135268827478 0.1484563422361732 0.0477074237839281 0.0 0.0 0.010320931324767265 0.020643159543466672 0.17501142400386097 0.003328928462410594 0.0 0.011302392093327396 0.02437988833591382 0.0018323002835971128 0.021561201386552296 0.026682846089952698 1.9638611303299047E-4 0.00942349571919345 0.0 0.0 0.0011008802808477555 0.01421944038775687 0.0015238125261798079 0.0 0.0 26:1.0 30:1.0 34:1.0 94:1.0 97:1.0 483:1.0 526:1.0 527:1.0 528:1.0 
